{"learner":{"attributes":{"scikit_learn":"{\"_estimator_type\": \"classifier\"}"},"feature_names":["income","name_email_similarity","prev_address_months_count","current_address_months_count","customer_age","days_since_request","intended_balcon_amount","zip_count_4w","velocity_6h","velocity_24h","velocity_4w","bank_branch_count_8w","date_of_birth_distinct_emails_4w","credit_risk_score","email_is_free","phone_home_valid","phone_mobile_valid","bank_months_count","has_other_cards","proposed_credit_limit","foreign_request","session_length_in_minutes","keep_alive_session","device_distinct_emails_8w","month","payment_type_AA","payment_type_AB","payment_type_AC","payment_type_AD","payment_type_AE","employment_status_CA","employment_status_CB","employment_status_CC","employment_status_CD","employment_status_CE","employment_status_CF","employment_status_CG","housing_status_BA","housing_status_BB","housing_status_BC","housing_status_BD","housing_status_BE","housing_status_BF","housing_status_BG","source_INTERNET","source_TELEAPP","device_os_linux","device_os_macintosh","device_os_other","device_os_windows","device_os_x11"],"feature_types":["float","float","int","int","int","float","float","int","float","float","float","int","int","int","int","int","int","int","int","float","int","float","int","int","int","int","int","int","int","int","int","int","int","int","int","int","int","int","int","int","int","int","int","int","int","int","int","int","int","int","int"],"gradient_booster":{"model":{"gbtree_model_param":{"num_parallel_tree":"1","num_trees":"100"},"iteration_indptr":[0,1,2,3,4,5,6,7,8,9,10,11,12,13,14,15,16,17,18,19,20,21,22,23,24,25,26,27,28,29,30,31,32,33,34,35,36,37,38,39,40,41,42,43,44,45,46,47,48,49,50,51,52,53,54,55,56,57,58,59,60,61,62,63,64,65,66,67,68,69,70,71,72,73,74,75,76,77,78,79,80,81,82,83,84,85,86,87,88,89,90,91,92,93,94,95,96,97,98,99,100],"tree_info":[0,0,0,0,0,0,0,0,0,0,0,0,0,0,0,0,0,0,0,0,0,0,0,0,0,0,0,0,0,0,0,0,0,0,0,0,0,0,0,0,0,0,0,0,0,0,0,0,0,0,0,0,0,0,0,0,0,0,0,0,0,0,0,0,0,0,0,0,0,0,0,0,0,0,0,0,0,0,0,0,0,0,0,0,0,0,0,0,0,0,0,0,0,0,0,0,0,0,0,0],"trees":[{"base_weights":[-2.0316412E-8,-8.2073766E-1,3.8730824E-1,-9.589916E-1,3.738105E-1,5.8412415E-1,-9.633195E-1,-2.0552109E-1,8.6808376E-2,1.2209213E-1,-1.901395E-1,1.5709132E-1,-9.8513305E-2,-1.4680837E-1,-2.8242198E-1],"categories":[],"categories_nodes":[],"categories_segments":[],"categories_sizes":[],"default_left":[0,0,0,0,0,0,0,0,0,0,0,0,0,0,0],"id":0,"left_children":[1,3,5,7,9,11,13,-1,-1,-1,-1,-1,-1,-1,-1],"loss_changes":[1.4029443E3,2.3404498E2,7.976321E2,1.2169006E2,4.68131E1,5.67839E2,3.8244293E1,0E0,0E0,0E0,0E0,0E0,0E0,0E0,0E0],"parents":[2147483647,0,0,1,1,2,2,3,3,4,4,5,5,6,6],"right_children":[2,4,6,8,10,12,14,-1,-1,-1,-1,-1,-1,-1,-1],"split_conditions":[4.5E1,2.27E2,1E0,2E0,1E0,1E0,1E0,-2.0552109E-1,8.6808376E-2,1.2209213E-1,-1.901395E-1,1.5709132E-1,-9.8513305E-2,-1.4680837E-1,-2.8242198E-1],"split_indices":[3,13,41,23,18,18,15,0,0,0,0,0,0,0,0],"split_type":[0,0,0,0,0,0,0,0,0,0,0,0,0,0,0],"sum_hessian":[4.4114614E3,1.4139877E3,2.9974739E3,1.267489E3,1.4649872E2,2.6167273E3,3.8074667E2,1.2082395E3,5.9249485E1,1.2474892E2,2.1749811E1,2.2047307E3,4.1199643E2,2.5374779E2,1.2699889E2],"tree_param":{"num_deleted":"0","num_feature":"51","num_nodes":"15","size_leaf_vector":"1"}},{"base_weights":[-1.9548189E-4,-6.147739E-1,1.0385702E0,-2.4294654E-1,-9.661772E-1,1.1622027E0,2.3981823E-1,-9.642099E-3,-2.1419168E-1,-1.5702347E-1,-2.864006E-1,2.7393502E-1,1.6156697E-1,1.09479904E-1,-8.426025E-2],"categories":[],"categories_nodes":[],"categories_segments":[],"categories_sizes":[],"default_left":[0,0,0,0,0,0,0,0,0,0,0,0,0,0,0],"id":1,"left_children":[1,3,5,7,9,11,13,-1,-1,-1,-1,-1,-1,-1,-1],"loss_changes":[2.7972327E3,3.5946094E2,1.6056067E2,2.1583878E2,1.1821826E2,1.0257056E2,4.48792E1,0E0,0E0,0E0,0E0,0E0,0E0,0E0,0E0],"parents":[2147483647,0,0,1,1,2,2,3,3,4,4,5,5,6,6],"right_children":[2,4,6,8,10,12,14,-1,-1,-1,-1,-1,-1,-1,-1],"split_conditions":[1E0,1E0,1E0,1E0,8E0,1E0,1E0,-9.642099E-3,-2.1419168E-1,-1.5702347E-1,-2.864006E-1,2.7393502E-1,1.6156697E-1,1.09479904E-1,-8.426025E-2],"split_indices":[37,22,18,18,2,22,22,0,0,0,0,0,0,0,0],"split_type":[0,0,0,0,0,0,0,0,0,0,0,0,0,0,0],"sum_hessian":[4.3796094E3,2.7518845E3,1.627725E3,1.3379073E3,1.413977E3,1.4091576E3,2.1856734E2,1.0840201E3,2.5388719E2,1.0201461E3,3.9383093E2,8.869867E2,5.221709E2,1.4928535E2,6.9281975E1],"tree_param":{"num_deleted":"0","num_feature":"51","num_nodes":"15","size_leaf_vector":"1"}},{"base_weights":[4.8110316E-5,-2.9175514E-1,6.818251E-1,-9.262122E-2,-1.0261767E0,8.543885E-1,-1.8646514E-1,4.466123E-2,-9.378491E-2,-2.1510689E-1,5.528481E-3,1.9356684E-1,-8.173074E-3,5.339102E-2,-1.6786054E-1],"categories":[],"categories_nodes":[],"categories_segments":[],"categories_sizes":[],"default_left":[0,0,0,0,0,0,0,0,0,0,0,0,0,0,0],"id":2,"left_children":[1,3,5,7,9,11,13,-1,-1,-1,-1,-1,-1,-1,-1],"loss_changes":[8.574927E2,4.413323E2,1.9372559E2,2.8252777E2,3.3513E1,1.09510254E2,6.3865875E1,0E0,0E0,0E0,0E0,0E0,0E0,0E0,0E0],"parents":[2147483647,0,0,1,1,2,2,3,3,4,4,5,5,6,6],"right_children":[2,4,6,8,10,12,14,-1,-1,-1,-1,-1,-1,-1,-1],"split_conditions":[1.98E2,8E0,1E0,1E0,2E0,8E0,1E0,4.466123E-2,-9.378491E-2,-2.1510689E-1,5.528481E-3,1.9356684E-1,-8.173074E-3,5.339102E-2,-1.6786054E-1],"split_indices":[13,2,18,22,23,2,22,0,0,0,0,0,0,0,0],"split_type":[0,0,0,0,0,0,0,0,0,0,0,0,0,0,0],"sum_hessian":[4.308205E3,3.0173428E3,1.2908625E3,2.3746084E3,6.427344E2,1.0768635E3,2.1399907E2,1.2910812E3,1.0835272E3,6.139578E2,2.8776585E1,9.556796E2,1.2118387E2,1.266364E2,8.736266E1],"tree_param":{"num_deleted":"0","num_feature":"51","num_nodes":"15","size_leaf_vector":"1"}},{"base_weights":[-6.8022964E-5,-5.049073E-1,6.8336976E-1,-7.463045E-1,1.1315048E-1,3.159625E-1,1.0094639E0,-7.63193E-2,-1.8547231E-1,5.7266958E-2,-1.2706044E-1,8.901571E-2,-9.074315E-2,2.1824296E-1,8.2311295E-2],"categories":[],"categories_nodes":[],"categories_segments":[],"categories_sizes":[],"default_left":[0,0,0,0,0,0,0,0,0,0,0,0,0,0,0],"id":3,"left_children":[1,3,5,7,9,11,13,-1,-1,-1,-1,-1,-1,-1,-1],"loss_changes":[1.4627136E3,3.6387366E2,2.1547198E2,1.1544043E2,8.906532E1,8.451084E1,4.616992E1,0E0,0E0,0E0,0E0,0E0,0E0,0E0,0E0],"parents":[2147483647,0,0,1,1,2,2,3,3,4,4,5,5,6,6],"right_children":[2,4,6,8,10,12,14,-1,-1,-1,-1,-1,-1,-1,-1],"split_conditions":[1E0,9E-1,8E-1,2E0,8E0,8E0,8E0,-7.63193E-2,-1.8547231E-1,5.7266958E-2,-1.2706044E-1,8.901571E-2,-9.074315E-2,2.1824296E-1,8.2311295E-2],"split_indices":[49,0,0,11,2,2,2,0,0,0,0,0,0,0,0],"split_type":[0,0,0,0,0,0,0,0,0,0,0,0,0,0,0],"sum_hessian":[4.2374272E3,2.4373074E3,1.80012E3,1.7525857E3,6.847217E2,8.473676E2,9.527523E2,5.824495E2,1.1701362E3,5.565574E2,1.2816426E2,7.260004E2,1.213672E2,8.374273E2,1.1532497E2],"tree_param":{"num_deleted":"0","num_feature":"51","num_nodes":"15","size_leaf_vector":"1"}},{"base_weights":[1.5431197E-4,-2.0879906E-1,6.0324955E-1,2.1482635E-1,-5.211459E-1,4.560435E-1,1.3555793E0,-3.8793486E-2,8.602194E-2,-1.4160149E-1,2.5919415E-3,1.1910005E-1,-6.7653336E-2,2.2635765E-1,2.926202E-1],"categories":[],"categories_nodes":[],"categories_segments":[],"categories_sizes":[],"default_left":[0,0,0,0,0,0,0,0,0,0,0,0,0,0,0],"id":4,"left_children":[1,3,5,7,9,11,13,-1,-1,-1,-1,-1,-1,-1,-1],"loss_changes":[5.252336E2,4.0969336E2,1.1815491E2,1.15760025E2,1.7786163E2,9.972658E1,2.5549927E0,0E0,0E0,0E0,0E0,0E0,0E0,0E0,0E0],"parents":[2147483647,0,0,1,1,2,2,3,3,4,4,5,5,6,6],"right_children":[2,4,6,8,10,12,14,-1,-1,-1,-1,-1,-1,-1,-1],"split_conditions":[1.5E3,2.998955E-1,1.9E3,4.7E1,9E-1,4.5950556E0,1E0,-3.8793486E-2,8.602194E-2,-1.4160149E-1,2.5919415E-3,1.1910005E-1,-6.7653336E-2,2.2635765E-1,2.926202E-1],"split_indices":[19,1,19,3,0,6,14,0,0,0,0,0,0,0,0],"split_type":[0,0,0,0,0,0,0,0,0,0,0,0,0,0,0],"sum_hessian":[4.1658994E3,3.0944312E3,1.0714684E3,1.3134099E3,1.7810211E3,8.974695E2,1.7399893E2,4.5311157E2,8.6029834E2,1.3191718E3,4.6184946E2,7.6364667E2,1.3382283E2,6.0208908E1,1.1379002E2],"tree_param":{"num_deleted":"0","num_feature":"51","num_nodes":"15","size_leaf_vector":"1"}},{"base_weights":[5.184444E-4,-3.9794922E-1,5.456969E-1,-5.6951776E-2,-6.615937E-1,8.107977E-1,3.0832583E-1,2.118349E-2,-1.2379398E-1,-1.4099924E-1,8.295012E-2,1.7806129E-1,6.312523E-2,1.4327489E-1,2.0861221E-2],"categories":[],"categories_nodes":[],"categories_segments":[],"categories_sizes":[],"default_left":[0,0,0,0,0,0,0,0,0,0,0,0,0,0,0],"id":5,"left_children":[1,3,5,7,9,11,13,-1,-1,-1,-1,-1,-1,-1,-1],"loss_changes":[8.915427E2,2.1312442E2,1.0880188E2,9.480029E1,6.2756165E1,3.192633E1,7.617588E1,0E0,0E0,0E0,0E0,0E0,0E0,0E0,0E0],"parents":[2147483647,0,0,1,1,2,2,3,3,4,4,5,5,6,6],"right_children":[2,4,6,8,10,12,14,-1,-1,-1,-1,-1,-1,-1,-1],"split_conditions":[1E0,3.2612777E-1,3.508134E-1,1E0,2E0,-2.66494E-1,1E0,2.118349E-2,-1.2379398E-1,-1.4099924E-1,8.295012E-2,1.7806129E-1,6.312523E-2,1.4327489E-1,2.0861221E-2],"split_indices":[49,1,1,38,23,6,17,0,0,0,0,0,0,0,0],"split_type":[0,0,0,0,0,0,0,0,0,0,0,0,0,0,0],"sum_hessian":[4.102029E3,2.3700464E3,1.7319825E3,1.0339512E3,1.3360952E3,8.17059E2,9.149235E2,8.0227E2,2.3168112E2,1.2846384E3,5.1456814E1,7.033289E2,1.13730095E2,3.0413287E2,6.1079065E2],"tree_param":{"num_deleted":"0","num_feature":"51","num_nodes":"15","size_leaf_vector":"1"}},{"base_weights":[6.024352E-4,-1.441683E-1,6.43845E-1,1.1131679E-1,-4.3858898E-1,8.765682E-1,3.1741863E-1,8.7797016E-2,-3.0535331E-2,-5.910894E-3,-1.2187723E-1,1.8804717E-1,5.456643E-2,9.3499705E-2,-5.9490282E-2],"categories":[],"categories_nodes":[],"categories_segments":[],"categories_sizes":[],"default_left":[0,0,0,0,0,0,0,0,0,0,0,0,0,0,0],"id":6,"left_children":[1,3,5,7,9,11,13,-1,-1,-1,-1,-1,-1,-1,-1],"loss_changes":[3.7559116E2,2.4769708E2,5.601181E1,1.5261465E2,1.0685718E2,1.6349274E1,2.8743032E1,0E0,0E0,0E0,0E0,0E0,0E0,0E0,0E0],"parents":[2147483647,0,0,1,1,2,2,3,3,4,4,5,5,6,6],"right_children":[2,4,6,8,10,12,14,-1,-1,-1,-1,-1,-1,-1,-1],"split_conditions":[2.29E2,1E0,1E0,3E0,2.0892534E-1,8E0,1E0,8.7797016E-2,-3.0535331E-2,-5.910894E-3,-1.2187723E-1,1.8804717E-1,5.456643E-2,9.3499705E-2,-5.9490282E-2],"split_indices":[13,22,22,11,1,2,48,0,0,0,0,0,0,0,0],"split_type":[0,0,0,0,0,0,0,0,0,0,0,0,0,0,0],"sum_hessian":[4.031296E3,3.2913152E3,7.3998065E2,1.7625098E3,1.5288054E3,4.3101004E2,3.089706E2,7.861182E2,9.763916E2,4.5067563E2,1.0781298E3,3.893892E2,4.162085E1,2.4854457E2,6.0426052E1],"tree_param":{"num_deleted":"0","num_feature":"51","num_nodes":"15","size_leaf_vector":"1"}},{"base_weights":[8.3396875E-4,-3.8209304E-1,6.756852E-1,-4.4169593E-1,6.507752E-1,7.3073894E-1,2.084062E-1,-1.14617765E-1,-9.6136425E-3,1.6364099E-1,-6.553409E-3,2.0092113E-1,1.2795632E-1,-8.2331866E-2,8.544998E-2],"categories":[],"categories_nodes":[],"categories_segments":[],"categories_sizes":[],"default_left":[0,0,0,0,0,0,0,0,0,0,0,0,0,0,0],"id":7,"left_children":[1,3,5,7,9,11,13,-1,-1,-1,-1,-1,-1,-1,-1],"loss_changes":[1.0252008E3,1.5610303E2,3.6793823E1,1.2376636E2,1.5876602E1,3.1351929E1,2.0906513E1,0E0,0E0,0E0,0E0,0E0,0E0,0E0,0E0],"parents":[2147483647,0,0,1,1,2,2,3,3,4,4,5,5,6,6],"right_children":[2,4,6,8,10,12,14,-1,-1,-1,-1,-1,-1,-1,-1],"split_conditions":[1E0,2E0,1E0,9E-1,1E1,4E0,7E-1,-1.14617765E-1,-9.6136425E-3,1.6364099E-1,-6.553409E-3,2.0092113E-1,1.2795632E-1,-8.2331866E-2,8.544998E-2],"split_indices":[37,23,31,0,2,12,0,0,0,0,0,0,0,0,0],"split_type":[0,0,0,0,0,0,0,0,0,0,0,0,0,0,0],"sum_hessian":[3.9652085E3,2.5300376E3,1.435171E3,2.3925452E3,1.374923E2,1.2834E3,1.5177101E2,1.7934395E3,5.991057E2,1.1028228E2,2.7210014E1,3.17471E2,9.65929E2,3.9362194E1,1.1240881E2],"tree_param":{"num_deleted":"0","num_feature":"51","num_nodes":"15","size_leaf_vector":"1"}},{"base_weights":[1.267399E-3,2.2788832E-1,-4.4600785E-1,-5.3526044E-2,5.349499E-1,2.0563725E-1,-6.3269293E-1,-7.969222E-2,3.5060983E-2,1.3048176E-1,-8.868584E-3,1.819451E-2,1.5617059E-1,-1.8125017E-1,-8.494217E-2],"categories":[],"categories_nodes":[],"categories_segments":[],"categories_sizes":[],"default_left":[0,0,0,0,0,0,0,0,0,0,0,0,0,0,0],"id":8,"left_children":[1,3,5,7,9,11,13,-1,-1,-1,-1,-1,-1,-1,-1],"loss_changes":[3.91928E2,2.2178926E2,1.5831299E2,1.0583835E2,8.3540436E1,1.9076996E1,5.7134644E1,0E0,0E0,0E0,0E0,0E0,0E0,0E0,0E0],"parents":[2147483647,0,0,1,1,2,2,3,3,4,4,5,5,6,6],"right_children":[2,4,6,8,10,12,14,-1,-1,-1,-1,-1,-1,-1,-1],"split_conditions":[1E0,8E-1,4E0,1E0,6.812321E-2,2.45E2,1E0,-7.969222E-2,3.5060983E-2,1.3048176E-1,-8.868584E-3,1.819451E-2,1.5617059E-1,-1.8125017E-1,-8.494217E-2],"split_indices":[15,0,12,14,6,13,14,0,0,0,0,0,0,0,0],"split_type":[0,0,0,0,0,0,0,0,0,0,0,0,0,0,0],"sum_hessian":[3.8646165E3,2.565331E3,1.2992855E3,1.338998E3,1.2263329E3,2.8931113E2,1.00997437E3,5.337273E2,8.0527075E2,1.01949194E3,2.0684097E2,2.4219052E2,4.7120617E1,4.3476825E2,5.752062E2],"tree_param":{"num_deleted":"0","num_feature":"51","num_nodes":"15","size_leaf_vector":"1"}},{"base_weights":[1.1470267E-3,-3.035258E-1,5.521275E-1,-1.8431339E-1,-8.9056575E-1,6.5551937E-1,-2.7921919E-2,-6.182639E-2,5.5326965E-2,-1.14293866E-1,-2.013278E-1,1.5613066E-1,7.0893876E-2,5.438412E-2,-8.4724024E-2],"categories":[],"categories_nodes":[],"categories_segments":[],"categories_sizes":[],"default_left":[0,0,0,0,0,0,0,0,0,0,0,0,0,0,0],"id":9,"left_children":[1,3,5,7,9,11,13,-1,-1,-1,-1,-1,-1,-1,-1],"loss_changes":[6.41366E2,1.7200838E2,8.160571E1,1.1781401E2,1.4796295E1,4.3220825E1,2.4647223E1,0E0,0E0,0E0,0E0,0E0,0E0,0E0,0E0],"parents":[2147483647,0,0,1,1,2,2,3,3,4,4,5,5,6,6],"right_children":[2,4,6,8,10,12,14,-1,-1,-1,-1,-1,-1,-1,-1],"split_conditions":[1E0,1E0,1E0,5E1,2E0,1E0,1E0,-6.182639E-2,5.5326965E-2,-1.14293866E-1,-2.013278E-1,1.5613066E-1,7.0893876E-2,5.438412E-2,-8.4724024E-2],"split_indices":[37,18,18,4,11,15,15,0,0,0,0,0,0,0,0],"split_type":[0,0,0,0,0,0,0,0,0,0,0,0,0,0,0],"sum_hessian":[3.8186406E3,2.4592249E3,1.3594158E3,2.0452102E3,4.1401456E2,1.1536511E3,2.0576465E2,1.6096642E3,4.3554605E2,1.1201047E2,3.020041E2,8.1379675E2,3.3985437E2,1.1723897E2,8.852568E1],"tree_param":{"num_deleted":"0","num_feature":"51","num_nodes":"15","size_leaf_vector":"1"}},{"base_weights":[1.2164393E-3,1.1781278E-1,-5.436749E-1,2.2444135E-1,-4.2904106E-1,-6.854025E-1,-2.0154135E-1,-1.1421675E-2,8.068153E-2,-1.2198132E-1,-1.5903322E-2,-1.4544657E-1,5.8640033E-2,-1.5778836E-2,-1.611223E-1],"categories":[],"categories_nodes":[],"categories_segments":[],"categories_sizes":[],"default_left":[0,0,0,0,0,0,0,0,0,0,0,0,0,0,0],"id":10,"left_children":[1,3,5,7,9,11,13,-1,-1,-1,-1,-1,-1,-1,-1],"loss_changes":[2.363624E2,1.787925E2,3.1659668E1,1.2927745E2,3.158461E1,1.9177185E1,1.4272076E1,0E0,0E0,0E0,0E0,0E0,0E0,0E0,0E0],"parents":[2147483647,0,0,1,1,2,2,3,3,4,4,5,5,6,6],"right_children":[2,4,6,8,10,12,14,-1,-1,-1,-1,-1,-1,-1,-1],"split_conditions":[8E0,1E0,9E-1,1E0,9E-1,6E1,1E0,-1.1421675E-2,8.068153E-2,-1.2198132E-1,-1.5903322E-2,-1.4544657E-1,5.8640033E-2,-1.5778836E-2,-1.611223E-1],"split_indices":[2,18,0,14,0,4,18,0,0,0,0,0,0,0,0],"split_type":[0,0,0,0,0,0,0,0,0,0,0,0,0,0,0],"sum_hessian":[3.7183398E3,3.0635767E3,6.547632E2,2.564187E3,4.9938968E2,4.6226724E2,1.9249597E2,9.9676215E2,1.5674249E3,3.2860446E2,1.707852E2,4.43564E2,1.8703241E1,1.6094846E2,3.1547508E1],"tree_param":{"num_deleted":"0","num_feature":"51","num_nodes":"15","size_leaf_vector":"1"}},{"base_weights":[3.65981E-4,-2.8837675E-1,4.017049E-1,-5.0650114E-1,2.3033628E-1,2.0010875E-1,6.7288244E-1,-1.1347064E-1,1.3379722E-2,-2.027675E-2,9.525876E-2,-2.6482401E-2,8.144914E-2,1.4544235E-1,2.480012E-2],"categories":[],"categories_nodes":[],"categories_segments":[],"categories_sizes":[],"default_left":[0,0,0,0,0,0,0,0,0,0,0,0,0,0,0],"id":11,"left_children":[1,3,5,7,9,11,13,-1,-1,-1,-1,-1,-1,-1,-1],"loss_changes":[4.2483615E2,2.4135222E2,8.372356E1,5.2420807E1,5.160047E1,6.0753872E1,1.9402405E1,0E0,0E0,0E0,0E0,0E0,0E0,0E0,0E0],"parents":[2147483647,0,0,1,1,2,2,3,3,4,4,5,5,6,6],"right_children":[2,4,6,8,10,12,14,-1,-1,-1,-1,-1,-1,-1,-1],"split_conditions":[1E0,1E0,1E0,1E0,1E0,1E0,1E0,-1.1347064E-1,1.3379722E-2,-2.027675E-2,9.525876E-2,-2.6482401E-2,8.144914E-2,1.4544235E-1,2.480012E-2],"split_indices":[49,37,37,47,14,14,31,0,0,0,0,0,0,0,0],"split_type":[0,0,0,0,0,0,0,0,0,0,0,0,0,0,0],"sum_hessian":[3.6640564E3,2.131112E3,1.5329442E3,1.5002603E3,6.308519E2,8.802759E2,6.526683E2,1.3563302E3,1.4393005E2,2.688478E2,3.6200412E2,3.3801498E2,5.4226086E2,5.935889E2,5.907938E1],"tree_param":{"num_deleted":"0","num_feature":"51","num_nodes":"15","size_leaf_vector":"1"}},{"base_weights":[5.7201716E-4,-2.3820749E-1,3.3310884E-1,-4.206835E-1,1.8783267E-1,5.196932E-1,-2.4953555E-2,-5.20243E-2,-1.4546089E-1,7.61963E-2,-4.644484E-2,1.4116596E-1,7.0862144E-2,-5.5713154E-2,6.94582E-2],"categories":[],"categories_nodes":[],"categories_segments":[],"categories_sizes":[],"default_left":[0,0,0,0,0,0,0,0,0,0,0,0,0,0,0],"id":12,"left_children":[1,3,5,7,9,11,13,-1,-1,-1,-1,-1,-1,-1,-1],"loss_changes":[2.8300552E2,1.61358E2,9.95334E1,7.133234E1,5.0617123E1,2.9898285E1,4.8363537E1,0E0,0E0,0E0,0E0,0E0,0E0,0E0,0E0],"parents":[2147483647,0,0,1,1,2,2,3,3,4,4,5,5,6,6],"right_children":[2,4,6,8,10,12,14,-1,-1,-1,-1,-1,-1,-1,-1],"split_conditions":[1E0,1E0,1E0,1E0,1E0,3E0,1E0,-5.20243E-2,-1.4546089E-1,7.61963E-2,-4.644484E-2,1.4116596E-1,7.0862144E-2,-5.5713154E-2,6.94582E-2],"split_indices":[49,37,15,15,15,11,37,0,0,0,0,0,0,0,0],"split_type":[0,0,0,0,0,0,0,0,0,0,0,0,0,0,0],"sum_hessian":[3.5621682E3,2.0735386E3,1.4886296E3,1.4517544E3,6.217842E2,9.783601E2,5.102696E2,9.540268E2,4.9772763E2,4.2599698E2,1.9578717E2,4.5876083E2,5.1959924E2,3.0364575E2,2.0662383E2],"tree_param":{"num_deleted":"0","num_feature":"51","num_nodes":"15","size_leaf_vector":"1"}},{"base_weights":[4.2085475E-4,-1.383412E-1,3.529138E-1,-1.0752777E-3,-4.6853626E-1,6.288908E-1,9.524187E-3,-4.7094855E-2,3.6720652E-2,-1.3902602E-1,-6.0283978E-2,7.571135E-2,1.5732561E-1,-3.89211E-2,7.9352126E-2],"categories":[],"categories_nodes":[],"categories_segments":[],"categories_sizes":[],"default_left":[0,0,0,0,0,0,0,0,0,0,0,0,0,0,0],"id":13,"left_children":[1,3,5,7,9,11,13,-1,-1,-1,-1,-1,-1,-1,-1],"loss_changes":[1.700274E2,1.1305064E2,9.304507E1,7.635403E1,2.7525223E1,2.119748E1,3.474095E1,0E0,0E0,0E0,0E0,0E0,0E0,0E0,0E0],"parents":[2147483647,0,0,1,1,2,2,3,3,4,4,5,5,6,6],"right_children":[2,4,6,8,10,12,14,-1,-1,-1,-1,-1,-1,-1,-1],"split_conditions":[5E1,1E0,1E0,5.3E1,1E0,1E0,6E1,-4.7094855E-2,3.6720652E-2,-1.3902602E-1,-6.0283978E-2,7.571135E-2,1.5732561E-1,-3.89211E-2,7.9352126E-2],"split_indices":[4,15,15,3,14,14,4,0,0,0,0,0,0,0,0],"split_type":[0,0,0,0,0,0,0,0,0,0,0,0,0,0,0],"sum_hessian":[3.4741458E3,2.493259E3,9.8088654E2,1.7618435E3,7.314155E2,5.433628E2,4.3752377E2,7.762857E2,9.8555786E2,3.0911957E2,4.22296E2,2.1134741E2,3.3201535E2,2.8682364E2,1.5070015E2],"tree_param":{"num_deleted":"0","num_feature":"51","num_nodes":"15","size_leaf_vector":"1"}},{"base_weights":[4.7804628E-4,-1.929543E-1,2.6954347E-1,-3.382844E-1,1.412667E-1,4.8729515E-1,7.368607E-2,-3.1047478E-2,-1.0723259E-1,-4.556535E-3,8.9169234E-2,6.793263E-2,1.3905726E-1,-2.9499412E-2,6.358018E-2],"categories":[],"categories_nodes":[],"categories_segments":[],"categories_sizes":[],"default_left":[0,0,0,0,0,0,0,0,0,0,0,0,0,0,0],"id":14,"left_children":[1,3,5,7,9,11,13,-1,-1,-1,-1,-1,-1,-1,-1],"loss_changes":[1.7839906E2,9.6907555E1,6.1104225E1,5.026758E1,3.024144E1,2.0603271E1,4.0878605E1,0E0,0E0,0E0,0E0,0E0,0E0,0E0,0E0],"parents":[2147483647,0,0,1,1,2,2,3,3,4,4,5,5,6,6],"right_children":[2,4,6,8,10,12,14,-1,-1,-1,-1,-1,-1,-1,-1],"split_conditions":[1E0,1E0,3.7214297E-1,4.504142E-1,1E0,1E0,8E-1,-3.1047478E-2,-1.0723259E-1,-4.556535E-3,8.9169234E-2,6.793263E-2,1.3905726E-1,-2.9499412E-2,6.358018E-2],"split_indices":[49,37,1,1,27,37,0,0,0,0,0,0,0,0,0],"split_type":[0,0,0,0,0,0,0,0,0,0,0,0,0,0,0],"sum_hessian":[3.4257222E3,1.9931328E3,1.4325892E3,1.3890966E3,6.0403625E2,6.7767316E2,7.549161E2,7.2251794E2,6.665786E2,3.9318713E2,2.108491E2,3.9788657E2,2.7978662E2,3.9634558E2,3.585705E2],"tree_param":{"num_deleted":"0","num_feature":"51","num_nodes":"15","size_leaf_vector":"1"}},{"base_weights":[5.642979E-4,-1.5856099E-1,2.2192052E-1,5.4319587E-2,-3.3543932E-1,3.5495946E-1,-2.2816213E-2,4.550014E-2,-5.8332562E-2,-1.235918E-1,-3.464378E-2,1.2370517E-1,4.9979925E-2,5.1835615E-2,-4.2248964E-2],"categories":[],"categories_nodes":[],"categories_segments":[],"categories_sizes":[],"default_left":[0,0,0,0,0,0,0,0,0,0,0,0,0,0,0],"id":15,"left_children":[1,3,5,7,9,11,13,-1,-1,-1,-1,-1,-1,-1,-1],"loss_changes":[1.1811122E2,7.347461E1,4.56689E1,5.3163845E1,4.8732315E1,2.5004036E1,2.6346716E1,0E0,0E0,0E0,0E0,0E0,0E0,0E0,0E0],"parents":[2147483647,0,0,1,1,2,2,3,3,4,4,5,5,6,6],"right_children":[2,4,6,8,10,12,14,-1,-1,-1,-1,-1,-1,-1,-1],"split_conditions":[1E0,3.2612777E-1,1E0,1E0,4.6E1,1.7691973E-1,3.0374575E-1,4.550014E-2,-5.8332562E-2,-1.235918E-1,-3.464378E-2,1.2370517E-1,4.9979925E-2,5.1835615E-2,-4.2248964E-2],"split_indices":[49,1,15,15,3,1,1,0,0,0,0,0,0,0,0],"split_type":[0,0,0,0,0,0,0,0,0,0,0,0,0,0,0],"sum_hessian":[3.3512073E3,1.9498276E3,1.4013796E3,8.85175E2,1.0646527E3,9.075726E2,4.9380704E2,5.90129E2,2.9504596E2,3.873109E2,6.773418E2,2.572686E2,6.5030396E2,1.9764478E2,2.9616226E2],"tree_param":{"num_deleted":"0","num_feature":"51","num_nodes":"15","size_leaf_vector":"1"}},{"base_weights":[3.1148444E-4,2.318557E-1,-1.715668E-1,9.715639E-2,4.978764E-1,-4.4196904E-2,-5.0008804E-1,3.3847835E-2,-7.209628E-2,2.6100663E-2,1.1814117E-1,-7.346821E-2,1.884125E-2,4.061702E-3,-1.2147903E-1],"categories":[],"categories_nodes":[],"categories_segments":[],"categories_sizes":[],"default_left":[0,0,0,0,0,0,0,0,0,0,0,0,0,0,0],"id":16,"left_children":[1,3,5,7,9,11,13,-1,-1,-1,-1,-1,-1,-1,-1],"loss_changes":[1.313596E2,5.034211E1,7.924832E1,3.0898071E1,1.6035385E1,6.1139267E1,2.9563187E1,0E0,0E0,0E0,0E0,0E0,0E0,0E0,0E0],"parents":[2147483647,0,0,1,1,2,2,3,3,4,4,5,5,6,6],"right_children":[2,4,6,8,10,12,14,-1,-1,-1,-1,-1,-1,-1,-1],"split_conditions":[3E0,9E-1,-3.7607664E-1,1E0,1E0,5E-1,1E0,3.3847835E-2,-7.209628E-2,2.6100663E-2,1.1814117E-1,-7.346821E-2,1.884125E-2,4.061702E-3,-1.2147903E-1],"split_indices":[11,0,6,18,30,0,24,0,0,0,0,0,0,0,0],"split_type":[0,0,0,0,0,0,0,0,0,0,0,0,0,0,0],"sum_hessian":[3.298707E3,1.4052665E3,1.8934406E3,9.3380194E2,4.714645E2,1.3652561E3,5.2818445E2,8.072774E2,1.26524506E2,9.5586426E1,3.7587808E2,4.089003E2,9.5635583E2,9.04327E1,4.3775174E2],"tree_param":{"num_deleted":"0","num_feature":"51","num_nodes":"15","size_leaf_vector":"1"}},{"base_weights":[1.8912672E-4,1.7043056E-1,-2.0341472E-1,6.1588652E-2,4.894382E-1,-4.0236664E-1,-5.5182092E-2,-3.5083886E-2,4.294021E-2,7.777239E-2,1.9447275E-1,-3.1979352E-2,-1.13921724E-1,-2.304739E-2,9.296816E-2],"categories":[],"categories_nodes":[],"categories_segments":[],"categories_sizes":[],"default_left":[0,0,0,0,0,0,0,0,0,0,0,0,0,0,0],"id":17,"left_children":[1,3,5,7,9,11,13,-1,-1,-1,-1,-1,-1,-1,-1],"loss_changes":[1.1329209E2,6.1777122E1,4.3872677E1,4.8243538E1,2.160984E1,2.5672104E1,2.6726444E1,0E0,0E0,0E0,0E0,0E0,0E0,0E0,0E0],"parents":[2147483647,0,0,1,1,2,2,3,3,4,4,5,5,6,6],"right_children":[2,4,6,8,10,12,14,-1,-1,-1,-1,-1,-1,-1,-1],"split_conditions":[1E0,1.5E3,1E0,1E0,1.9E3,3E0,2.55E2,-3.5083886E-2,4.294021E-2,7.777239E-2,1.9447275E-1,-3.1979352E-2,-1.13921724E-1,-2.304739E-2,9.296816E-2],"split_indices":[22,19,14,14,19,11,13,0,0,0,0,0,0,0,0],"split_type":[0,0,0,0,0,0,0,0,0,0,0,0,0,0,0],"sum_hessian":[3.2664988E3,1.7790913E3,1.4874075E3,1.3273926E3,4.516987E2,6.34326E2,8.530814E2,5.2091077E2,8.064819E2,3.7533496E2,7.636376E1,2.5972665E2,3.7459937E2,7.654606E2,8.762083E1],"tree_param":{"num_deleted":"0","num_feature":"51","num_nodes":"15","size_leaf_vector":"1"}},{"base_weights":[4.1091282E-4,8.1910536E-2,-3.9663756E-1,1.6175622E-1,-3.33886E-1,-4.2355144E-1,8.527283E-1,8.7787524E-2,1.1224668E-2,-8.510138E-2,6.274866E-2,-6.522163E-2,-1.4679958E-1,2.0240395E-1,-7.0321076E-2],"categories":[],"categories_nodes":[],"categories_segments":[],"categories_sizes":[],"default_left":[0,0,0,0,0,0,0,0,0,0,0,0,0,0,0],"id":18,"left_children":[1,3,5,7,9,11,13,-1,-1,-1,-1,-1,-1,-1,-1],"loss_changes":[1.0458168E2,8.907778E1,1.8868874E1,6.58593E1,2.5784595E1,1.6080147E1,2.6461658E0,0E0,0E0,0E0,0E0,0E0,0E0,0E0,0E0],"parents":[2147483647,0,0,1,1,2,2,3,3,4,4,5,5,6,6],"right_children":[2,4,6,8,10,12,14,-1,-1,-1,-1,-1,-1,-1,-1],"split_conditions":[8E0,1E0,1.9E3,1.7691973E-1,2.6E2,-4.2832288E-1,1E0,8.7787524E-2,1.1224668E-2,-8.510138E-2,6.274866E-2,-6.522163E-2,-1.4679958E-1,2.0240395E-1,-7.0321076E-2],"split_indices":[2,18,19,1,13,6,46,0,0,0,0,0,0,0,0],"split_type":[0,0,0,0,0,0,0,0,0,0,0,0,0,0,0],"sum_hessian":[3.2298853E3,2.6804749E3,5.4941034E2,2.2491753E3,4.3129962E2,5.3847156E2,1.093878E1,6.1976154E2,1.6294138E3,3.7814584E2,5.3153767E1,4.1139337E2,1.2707821E2,9.802002E0,1.1367786E0],"tree_param":{"num_deleted":"0","num_feature":"51","num_nodes":"15","size_leaf_vector":"1"}},{"base_weights":[1.5847325E-4,-1.0193453E-1,2.6274985E-1,-4.8333755E-1,-3.1999126E-3,4.7229564E-1,1.665025E-2,-1.4296685E-1,-7.046058E-2,3.9371002E-2,-3.14119E-2,5.5862553E-2,1.2025144E-1,-3.039734E-2,6.778171E-2],"categories":[],"categories_nodes":[],"categories_segments":[],"categories_sizes":[],"default_left":[0,0,0,0,0,0,0,0,0,0,0,0,0,0,0],"id":19,"left_children":[1,3,5,7,9,11,13,-1,-1,-1,-1,-1,-1,-1,-1],"loss_changes":[8.555195E1,8.652923E1,4.6062557E1,1.4081444E1,5.624546E1,1.18398285E1,2.243539E1,0E0,0E0,0E0,0E0,0E0,0E0,0E0,0E0],"parents":[2147483647,0,0,1,1,2,2,3,3,4,4,5,5,6,6],"right_children":[2,4,6,8,10,12,14,-1,-1,-1,-1,-1,-1,-1,-1],"split_conditions":[5E1,1E0,1E0,4.8E1,3E0,1E0,6E1,-1.4296685E-1,-7.046058E-2,3.9371002E-2,-3.14119E-2,5.5862553E-2,1.2025144E-1,-3.039734E-2,6.778171E-2],"split_indices":[4,30,15,3,11,14,4,0,0,0,0,0,0,0,0],"split_type":[0,0,0,0,0,0,0,0,0,0,0,0,0,0,0],"sum_hessian":[3.1891973E3,2.2968254E3,8.923718E2,4.715139E2,1.8253114E3,4.8148438E2,4.1088745E2,1.6881538E2,3.0269852E2,7.934082E2,1.0319032E3,1.9413675E2,2.8734763E2,2.7008237E2,1.4080507E2],"tree_param":{"num_deleted":"0","num_feature":"51","num_nodes":"15","size_leaf_vector":"1"}},{"base_weights":[1.5728432E-4,4.0987724E-1,-8.019204E-2,5.656667E-1,1.495174E-1,-4.1449183E-1,1.0744708E-2,1.4227508E-1,7.553058E-2,-1.1649881E-2,9.02318E-2,-1.0461026E-1,-1.3726801E-2,-5.9451335E-3,1.5643726E-1],"categories":[],"categories_nodes":[],"categories_segments":[],"categories_sizes":[],"default_left":[0,0,0,0,0,0,0,0,0,0,0,0,0,0,0],"id":20,"left_children":[1,3,5,7,9,11,13,-1,-1,-1,-1,-1,-1,-1,-1],"loss_changes":[1.03979385E2,2.0920036E1,8.0280014E1,8.597206E0,1.22609825E1,2.116729E1,6.486542E1,0E0,0E0,0E0,0E0,0E0,0E0,0E0,0E0],"parents":[2147483647,0,0,1,1,2,2,3,3,4,4,5,5,6,6],"right_children":[2,4,6,8,10,12,14,-1,-1,-1,-1,-1,-1,-1,-1],"split_conditions":[4E0,1E0,1E0,1E0,1.323E3,1E0,2E0,1.4227508E-1,7.553058E-2,-1.1649881E-2,9.02318E-2,-1.0461026E-1,-1.3726801E-2,-5.9451335E-3,1.5643726E-1],"split_indices":[12,22,30,15,7,37,23,0,0,0,0,0,0,0,0],"split_type":[0,0,0,0,0,0,0,0,0,0,0,0,0,0,0],"sum_hessian":[3.15648E3,5.168483E2,2.6396316E3,3.2262756E2,1.9422076E2,5.6372375E2,2.075908E3,1.8019484E2,1.4243272E2,1.15483864E2,7.873689E1,4.2866125E2,1.3506252E2,1.9733462E3,1.02561676E2],"tree_param":{"num_deleted":"0","num_feature":"51","num_nodes":"15","size_leaf_vector":"1"}},{"base_weights":[3.4453016E-4,-1.07588165E-1,2.1178916E-1,4.3034607E-1,-1.5544769E-1,4.983947E-2,3.4269297E-1,1.1389692E-1,6.559595E-3,-8.542794E-3,-8.090803E-2,2.7171923E-2,-6.380913E-2,8.7974615E-2,7.9338765E-3],"categories":[],"categories_nodes":[],"categories_segments":[],"categories_sizes":[],"default_left":[0,0,0,0,0,0,0,0,0,0,0,0,0,0,0],"id":21,"left_children":[1,3,5,7,9,11,13,-1,-1,-1,-1,-1,-1,-1,-1],"loss_changes":[7.139773E1,5.3391224E1,2.2396736E1,9.356277E0,5.341385E1,1.5076515E1,1.7194916E1,0E0,0E0,0E0,0E0,0E0,0E0,0E0,0E0],"parents":[2147483647,0,0,1,1,2,2,3,3,4,4,5,5,6,6],"right_children":[2,4,6,8,10,12,14,-1,-1,-1,-1,-1,-1,-1,-1],"split_conditions":[1E0,3E0,1E0,1E0,1E0,1E0,1E0,1.1389692E-1,6.559595E-3,-8.542794E-3,-8.090803E-2,2.7171923E-2,-6.380913E-2,8.7974615E-2,7.9338765E-3],"split_indices":[37,12,14,46,15,18,46,0,0,0,0,0,0,0,0],"split_type":[0,0,0,0,0,0,0,0,0,0,0,0,0,0,0],"sum_hessian":[3.1264912E3,2.0702273E3,1.056264E3,1.6848526E2,1.901742E3,4.7276102E2,5.83503E2,1.244843E2,4.400097E1,1.3100251E3,5.9171686E2,3.838767E2,8.888432E1,4.4147098E2,1.42032E2],"tree_param":{"num_deleted":"0","num_feature":"51","num_nodes":"15","size_leaf_vector":"1"}},{"base_weights":[4.0151464E-4,-1.4165784E-1,1.6701306E-1,-3.848601E-1,-5.618327E-2,1.349549E-1,8.857191E-1,-8.569304E-2,7.036792E-2,1.8867312E-2,-6.456331E-2,1.1444087E-1,1.752032E-2,1.8271437E-1,-6.5864556E-2],"categories":[],"categories_nodes":[],"categories_segments":[],"categories_sizes":[],"default_left":[0,0,0,0,0,0,0,0,0,0,0,0,0,0,0],"id":22,"left_children":[1,3,5,7,9,11,13,-1,-1,-1,-1,-1,-1,-1,-1],"loss_changes":[7.2952E1,3.456249E1,3.2563786E1,1.4043747E1,4.948334E1,2.8090939E1,2.344658E0,0E0,0E0,0E0,0E0,0E0,0E0,0E0,0E0],"parents":[2147483647,0,0,1,1,2,2,3,3,4,4,5,5,6,6],"right_children":[2,4,6,8,10,12,14,-1,-1,-1,-1,-1,-1,-1,-1],"split_conditions":[8E-1,3.9E1,1.9E3,6.63228E3,1.39E2,3E0,3.7E2,-8.569304E-2,7.036792E-2,1.8867312E-2,-6.456331E-2,1.1444087E-1,1.752032E-2,1.8271437E-1,-6.5864556E-2],"split_indices":[0,3,19,10,3,12,3,0,0,0,0,0,0,0,0],"split_type":[0,0,0,0,0,0,0,0,0,0,0,0,0,0,0],"sum_hessian":[3.0802112E3,1.6626888E3,1.4175222E3,4.3148227E2,1.2312067E3,1.35813E3,5.939214E1,4.0776514E2,2.371712E1,7.8736786E2,4.4383875E2,1.316276E2,1.2265024E3,5.8303745E1,1.0883963E0],"tree_param":{"num_deleted":"0","num_feature":"51","num_nodes":"15","size_leaf_vector":"1"}},{"base_weights":[4.7408338E-4,-3.841894E-2,6.19245E-1,2.2419484E-2,-3.6059737E-1,5.287218E-1,1.0959744E0,-5.1247086E-2,1.9105684E-2,-1.481777E-1,-4.402793E-2,1.1212599E-1,-2.3178916E-1,2.4720226E-1,2.260525E-3],"categories":[],"categories_nodes":[],"categories_segments":[],"categories_sizes":[],"default_left":[0,0,0,0,0,0,0,0,0,0,0,0,0,0,0],"id":23,"left_children":[1,3,5,7,9,11,13,-1,-1,-1,-1,-1,-1,-1,-1],"loss_changes":[7.35609E1,5.6378002E1,7.221443E0,4.9325703E1,2.4240318E1,8.934601E0,4.226101E0,0E0,0E0,0E0,0E0,0E0,0E0,0E0,0E0],"parents":[2147483647,0,0,1,1,2,2,3,3,4,4,5,5,6,6],"right_children":[2,4,6,8,10,12,14,-1,-1,-1,-1,-1,-1,-1,-1],"split_conditions":[2E0,1E0,2.0145967E1,3E1,4.4E1,1.9531086E1,1.88E2,-5.1247086E-2,1.9105684E-2,-1.481777E-1,-4.402793E-2,1.1212599E-1,-2.3178916E-1,2.4720226E-1,2.260525E-3],"split_indices":[23,18,21,4,3,21,11,0,0,0,0,0,0,0,0],"split_type":[0,0,0,0,0,0,0,0,0,0,0,0,0,0,0],"sum_hessian":[3.0546592E3,2.8748948E3,1.7976442E2,2.4190288E3,4.5586588E2,1.5284978E2,2.691464E1,5.0223892E2,1.9167899E3,1.2180432E2,3.3406155E2,1.5066895E2,2.1808395E0,2.3713568E1,3.2010725E0],"tree_param":{"num_deleted":"0","num_feature":"51","num_nodes":"15","size_leaf_vector":"1"}},{"base_weights":[2.3792048E-4,1.2367572E-1,-1.4614631E-1,2.0813224E-1,-1.58768E-1,-2.4283203E-1,8.225333E-2,5.24259E-2,-3.8080405E-2,-9.897343E-3,-1.2928455E-1,-7.928846E-2,-1.3055411E-2,3.2373395E-2,-7.143041E-2],"categories":[],"categories_nodes":[],"categories_segments":[],"categories_sizes":[],"default_left":[0,0,0,0,0,0,0,0,0,0,0,0,0,0,0],"id":24,"left_children":[1,3,5,7,9,11,13,-1,-1,-1,-1,-1,-1,-1,-1],"loss_changes":[5.474E1,3.9238274E1,3.0624886E1,2.7286251E1,2.0159723E1,2.6538353E1,1.4503469E1,0E0,0E0,0E0,0E0,0E0,0E0,0E0,0E0],"parents":[2147483647,0,0,1,1,2,2,3,3,4,4,5,5,6,6],"right_children":[2,4,6,8,10,12,14,-1,-1,-1,-1,-1,-1,-1,-1],"split_conditions":[1E0,1E0,1.812E3,1E0,1E0,8E-1,1E1,5.24259E-2,-3.8080405E-2,-9.897343E-3,-1.2928455E-1,-7.928846E-2,-1.3055411E-2,3.2373395E-2,-7.143041E-2],"split_indices":[22,46,7,41,25,0,2,0,0,0,0,0,0,0,0],"split_type":[0,0,0,0,0,0,0,0,0,0,0,0,0,0,0],"sum_hessian":[3.0274397E3,1.642535E3,1.3849047E3,1.2646436E3,3.778915E2,9.7296686E2,4.1193777E2,1.1140443E3,1.5059917E2,3.096106E2,6.82809E1,5.209974E2,4.5196945E2,3.4928433E2,6.2653435E1],"tree_param":{"num_deleted":"0","num_feature":"51","num_nodes":"15","size_leaf_vector":"1"}},{"base_weights":[-2.4805855E-5,-1.6992518E-1,1.17268495E-1,-2.9595155E-1,2.5407248E-3,-1.5202735E-1,1.9643593E-1,-1.4479934E-2,-7.530715E-2,-2.2497287E-2,4.6903685E-2,-4.9112346E-2,1.0622417E-1,3.433274E-2,1.8235722E-1],"categories":[],"categories_nodes":[],"categories_segments":[],"categories_sizes":[],"default_left":[0,0,0,0,0,0,0,0,0,0,0,0,0,0,0],"id":25,"left_children":[1,3,5,7,9,11,13,-1,-1,-1,-1,-1,-1,-1,-1],"loss_changes":[5.9802612E1,2.6639606E1,3.7878326E1,1.2729919E1,1.3860681E1,2.5938423E1,2.4163635E1,0E0,0E0,0E0,0E0,0E0,0E0,0E0,0E0],"parents":[2147483647,0,0,1,1,2,2,3,3,4,4,5,5,6,6],"right_children":[2,4,6,8,10,12,14,-1,-1,-1,-1,-1,-1,-1,-1],"split_conditions":[1E0,1E0,4E-1,4.2263296E3,9E-1,6.0333687E3,1.9E3,-1.4479934E-2,-7.530715E-2,-2.2497287E-2,4.6903685E-2,-4.9112346E-2,1.0622417E-1,3.433274E-2,1.8235722E-1],"split_indices":[14,49,0,10,0,10,19,0,0,0,0,0,0,0,0],"split_type":[0,0,0,0,0,0,0,0,0,0,0,0,0,0,0],"sum_hessian":[2.9989075E3,1.224606E3,1.7743014E3,7.071517E2,5.1745435E2,4.0289474E2,1.3714066E3,1.8787065E2,5.19281E2,3.4626996E2,1.7118439E2,3.5493832E2,4.7956425E1,1.3267035E3,4.4703106E1],"tree_param":{"num_deleted":"0","num_feature":"51","num_nodes":"15","size_leaf_vector":"1"}},{"base_weights":[7.5042946E-5,1.3190535E-1,-1.3145317E-1,2.1506101E-1,-1.600783E-1,-1.550381E-1,6.488234E-1,-1.010576E-2,6.0324408E-2,-4.628847E-2,1.3388164E-1,-6.9533085E-4,-5.3149074E-2,-1.0721445E-1,1.394478E-1],"categories":[],"categories_nodes":[],"categories_segments":[],"categories_sizes":[],"default_left":[0,0,0,0,0,0,0,0,0,0,0,0,0,0,0],"id":26,"left_children":[1,3,5,7,9,11,13,-1,-1,-1,-1,-1,-1,-1,-1],"loss_changes":[5.1642876E1,3.6150295E1,2.7537016E1,2.664133E1,1.9706882E1,2.4294174E1,2.8941917E0,0E0,0E0,0E0,0E0,0E0,0E0,0E0,0E0],"parents":[2147483647,0,0,1,1,2,2,3,3,4,4,5,5,6,6],"right_children":[2,4,6,8,10,12,14,-1,-1,-1,-1,-1,-1,-1,-1],"split_conditions":[4.0016845E-1,-4.1700274E-1,1.9E3,1E0,6.4409346E3,3E0,4.314524E-1,-1.010576E-2,6.0324408E-2,-4.628847E-2,1.3388164E-1,-6.9533085E-4,-5.3149074E-2,-1.0721445E-1,1.394478E-1],"split_indices":[1,6,19,30,10,11,1,0,0,0,0,0,0,0,0],"split_type":[0,0,0,0,0,0,0,0,0,0,0,0,0,0,0],"sum_hessian":[2.9763535E3,1.4864683E3,1.4898853E3,1.1571737E3,3.2929456E2,1.4469504E3,4.2934772E1,2.8454337E2,8.726304E2,3.038722E2,2.542236E1,6.1121326E2,8.357372E2,1.2900654E0,4.1644707E1],"tree_param":{"num_deleted":"0","num_feature":"51","num_nodes":"15","size_leaf_vector":"1"}},{"base_weights":[1.5546345E-4,5.868768E-2,-2.9555446E-1,2.872944E-2,5.5528855E-1,-3.3990863E-1,3.7293327E-1,2.1185048E-2,-3.3869006E-2,5.0512005E-2,1.317254E-1,-8.105668E-2,1.1326827E-2,-7.122955E-3,1.6742839E-1],"categories":[],"categories_nodes":[],"categories_segments":[],"categories_sizes":[],"default_left":[0,0,0,0,0,0,0,0,0,0,0,0,0,0,0],"id":27,"left_children":[1,3,5,7,9,11,13,-1,-1,-1,-1,-1,-1,-1,-1],"loss_changes":[5.1220516E1,3.67353E1,1.4624683E1,3.5657093E1,4.22871E0,1.1923676E1,5.890242E0,0E0,0E0,0E0,0E0,0E0,0E0,0E0,0E0],"parents":[2147483647,0,0,1,1,2,2,3,3,4,4,5,5,6,6],"right_children":[2,4,6,8,10,12,14,-1,-1,-1,-1,-1,-1,-1,-1],"split_conditions":[8E0,2E0,2.18E2,1.48E2,5.4E1,7E0,1E0,2.1185048E-2,-3.3869006E-2,5.0512005E-2,1.317254E-1,-8.105668E-2,1.1326827E-2,-7.122955E-3,1.6742839E-1],"split_indices":[2,23,2,3,3,24,27,0,0,0,0,0,0,0,0],"split_type":[0,0,0,0,0,0,0,0,0,0,0,0,0,0,0],"sum_hessian":[2.9572576E3,2.4692925E3,4.8796512E2,2.3298013E3,1.3949112E2,4.5806412E2,2.9901026E1,1.6767749E3,6.530263E2,3.6375004E1,1.0311612E2,3.9321582E2,6.484828E1,1.6395071E1,1.3505954E1],"tree_param":{"num_deleted":"0","num_feature":"51","num_nodes":"15","size_leaf_vector":"1"}},{"base_weights":[1.7787737E-4,-4.0729348E-2,3.561701E-1,1.0927726E-2,-3.367253E-1,4.2795005E-1,-1.4057562E-1,6.234579E-3,-1.4424323E-1,-1.2376686E-1,-4.5665197E-2,1.4379631E-1,6.902324E-2,5.0472017E-2,-9.7116776E-2],"categories":[],"categories_nodes":[],"categories_segments":[],"categories_sizes":[],"default_left":[0,0,0,0,0,0,0,0,0,0,0,0,0,0,0],"id":28,"left_children":[1,3,5,7,9,11,13,-1,-1,-1,-1,-1,-1,-1,-1],"loss_changes":[4.2866474E1,4.0373188E1,1.0877838E1,3.335611E1,1.1856461E1,6.148239E0,5.4173775E0,0E0,0E0,0E0,0E0,0E0,0E0,0E0,0E0],"parents":[2147483647,0,0,1,1,2,2,3,3,4,4,5,5,6,6],"right_children":[2,4,6,8,10,12,14,-1,-1,-1,-1,-1,-1,-1,-1],"split_conditions":[2.55E2,1E0,2.43E2,1E0,4.4E1,-1.1570821E0,-8.180754E-1,6.234579E-3,-1.4424323E-1,-1.2376686E-1,-4.5665197E-2,1.4379631E-1,6.902324E-2,5.0472017E-2,-9.7116776E-2],"split_indices":[13,18,3,35,3,6,6,0,0,0,0,0,0,0,0],"split_type":[0,0,0,0,0,0,0,0,0,0,0,0,0,0,0],"sum_hessian":[2.9415935E3,2.6392065E3,3.023868E2,2.247872E3,3.913345E2,2.6432956E2,3.805724E1,2.1883184E3,5.9553738E1,1.0732154E2,2.8401297E2,5.6863533E1,2.0746603E2,1.7918312E1,2.0138927E1],"tree_param":{"num_deleted":"0","num_feature":"51","num_nodes":"15","size_leaf_vector":"1"}},{"base_weights":[1.6301337E-5,1.912434E-1,-7.045097E-2,2.9287124E-1,-7.749294E-2,-1.1616109E-1,2.855629E-1,4.238025E-2,1.0324943E-1,4.1096224E-4,-1.1400049E-1,-2.9856412E-2,6.223188E-2,7.003002E-2,-3.1258117E-2],"categories":[],"categories_nodes":[],"categories_segments":[],"categories_sizes":[],"default_left":[0,0,0,0,0,0,0,0,0,0,0,0,0,0,0],"id":29,"left_children":[1,3,5,7,9,11,13,-1,-1,-1,-1,-1,-1,-1,-1],"loss_changes":[3.9379173E1,2.1513958E1,3.478392E1,1.0221542E1,8.491737E0,2.6840832E1,6.997139E0,0E0,0E0,0E0,0E0,0E0,0E0,0E0,0E0],"parents":[2147483647,0,0,1,1,2,2,3,3,4,4,5,5,6,6],"right_children":[2,4,6,8,10,12,14,-1,-1,-1,-1,-1,-1,-1,-1],"split_conditions":[1.7691973E-1,1E0,2.53E2,1.93E2,1.92E2,6E1,1E0,4.238025E-2,1.0324943E-1,4.1096224E-4,-1.1400049E-1,-2.9856412E-2,6.223188E-2,7.003002E-2,-3.1258117E-2],"split_indices":[1,46,13,13,3,4,25,0,0,0,0,0,0,0,0],"split_type":[0,0,0,0,0,0,0,0,0,0,0,0,0,0,0],"sum_hessian":[2.9203333E3,7.859059E2,2.1344275E3,5.701883E2,2.1571758E2,1.8921588E3,2.4226855E2,4.199222E2,1.502661E2,1.865782E2,2.9139378E1,1.7566539E3,1.3550491E2,2.1155275E2,3.0715815E1],"tree_param":{"num_deleted":"0","num_feature":"51","num_nodes":"15","size_leaf_vector":"1"}},{"base_weights":[2.3467152E-4,8.754138E-2,-1.7229702E-1,-1.5714468E-1,1.5768969E-1,-2.2671732E-1,2.5544876E-1,-4.4148594E-2,4.729849E-2,-1.615074E-2,4.4343773E-2,-9.913432E-2,-2.857554E-2,7.11964E-2,-4.4703055E-2],"categories":[],"categories_nodes":[],"categories_segments":[],"categories_sizes":[],"default_left":[0,0,0,0,0,0,0,0,0,0,0,0,0,0,0],"id":30,"left_children":[1,3,5,7,9,11,13,-1,-1,-1,-1,-1,-1,-1,-1],"loss_changes":[4.3665546E1,3.30628E1,2.2731157E1,1.0801278E1,2.2864567E1,1.942538E1,5.3957195E0,0E0,0E0,0E0,0E0,0E0,0E0,0E0,0E0],"parents":[2147483647,0,0,1,1,2,2,3,3,4,4,5,5,6,6],"right_children":[2,4,6,8,10,12,14,-1,-1,-1,-1,-1,-1,-1,-1],"split_conditions":[1E0,3E1,1E0,1E0,1E0,1E0,-3.585841E-1,-4.4148594E-2,4.729849E-2,-1.615074E-2,4.4343773E-2,-9.913432E-2,-2.857554E-2,7.11964E-2,-4.4703055E-2],"split_indices":[15,4,32,37,30,30,6,0,0,0,0,0,0,0,0],"split_type":[0,0,0,0,0,0,0,0,0,0,0,0,0,0,0],"sum_hessian":[2.8968267E3,1.9238087E3,9.730179E2,4.2836792E2,1.4954408E3,8.6361383E2,1.09404015E2,3.6916302E2,5.920488E1,3.1650842E2,1.1789324E3,2.04066E2,6.5954785E2,9.0636444E1,1.8767574E1],"tree_param":{"num_deleted":"0","num_feature":"51","num_nodes":"15","size_leaf_vector":"1"}},{"base_weights":[8.687177E-5,2.5636625E-1,-4.8573602E-2,1.4709395E-1,5.1217955E-1,-9.7869284E-2,2.4514097E-1,-2.4074385E-2,5.673572E-2,1.1120111E-1,-1.7756836E-1,2.8094446E-2,-3.8670067E-2,3.538735E-1,4.439206E-2],"categories":[],"categories_nodes":[],"categories_segments":[],"categories_sizes":[],"default_left":[0,0,0,0,0,0,0,0,0,0,0,0,0,0,0],"id":31,"left_children":[1,3,5,7,9,11,13,-1,-1,-1,-1,-1,-1,-1,-1],"loss_changes":[3.5871082E1,1.2755346E1,3.5025658E1,1.1834786E1,8.898354E0,4.7150856E1,1.1892639E1,0E0,0E0,0E0,0E0,0E0,0E0,0E0,0E0],"parents":[2147483647,0,0,1,1,2,2,3,3,4,4,5,5,6,6],"right_children":[2,4,6,8,10,12,14,-1,-1,-1,-1,-1,-1,-1,-1],"split_conditions":[4E0,1.675E3,5.826787E3,6E-1,1E0,4.230429E3,2.9247266E3,-2.4074385E-2,5.673572E-2,1.1120111E-1,-1.7756836E-1,2.8094446E-2,-3.8670067E-2,3.538735E-1,4.439206E-2],"split_indices":[12,7,10,0,35,10,9,0,0,0,0,0,0,0,0],"split_type":[0,0,0,0,0,0,0,0,0,0,0,0,0,0,0],"sum_hessian":[2.874436E3,4.5800412E2,2.4164321E3,3.2202435E2,1.3597978E2,2.0697256E3,3.4670636E2,1.0889676E2,2.1312758E2,1.3243686E2,3.5429146E0,5.918551E2,1.4778706E3,4.065316E0,3.4264102E2],"tree_param":{"num_deleted":"0","num_feature":"51","num_nodes":"15","size_leaf_vector":"1"}},{"base_weights":[2.6436092E-4,-1.3681416E-1,9.442864E-2,-8.108481E-2,-4.2563456E-1,1.7682977E-1,-1.09177105E-1,-3.2360822E-2,1.840448E-2,-9.8237716E-2,1.3964719E-2,-5.0441744E-3,5.013416E-2,-1.6571512E-2,-1.4888264E-1],"categories":[],"categories_nodes":[],"categories_segments":[],"categories_sizes":[],"default_left":[0,0,0,0,0,0,0,0,0,0,0,0,0,0,0],"id":32,"left_children":[1,3,5,7,9,11,13,-1,-1,-1,-1,-1,-1,-1,-1],"loss_changes":[3.7001812E1,1.8754221E1,2.852892E1,1.3704845E1,6.1589622E0,1.8060448E1,8.134029E0,0E0,0E0,0E0,0E0,0E0,0E0,0E0,0E0],"parents":[2147483647,0,0,1,1,2,2,3,3,4,4,5,5,6,6],"right_children":[2,4,6,8,10,12,14,-1,-1,-1,-1,-1,-1,-1,-1],"split_conditions":[1E0,9E0,1E0,9E-1,6.6399155E3,3.9E1,1E0,-3.2360822E-2,1.840448E-2,-9.8237716E-2,1.3964719E-2,-5.0441744E-3,5.013416E-2,-1.6571512E-2,-1.4888264E-1],"split_indices":[14,2,46,0,9,3,35,0,0,0,0,0,0,0,0],"split_type":[0,0,0,0,0,0,0,0,0,0,0,0,0,0,0],"sum_hessian":[2.8646008E3,1.1663085E3,1.6982925E3,9.7873694E2,1.8757149E2,1.2090929E3,4.8919955E2,6.6753357E2,3.1120337E2,1.6566145E2,2.1910038E1,3.2378384E2,8.853091E2,4.7082254E2,1.8377018E1],"tree_param":{"num_deleted":"0","num_feature":"51","num_nodes":"15","size_leaf_vector":"1"}},{"base_weights":[5.3663585E-5,1.3172774E-1,-9.789172E-2,1.0674147E-1,7.223358E-1,-1.2795328E-1,4.867662E-1,1.4833847E-2,1.15519024E-1,1.793906E-1,-2.1606158E-2,-3.053457E-2,1.0302677E-1,-2.4345143E-1,1.06274225E-1],"categories":[],"categories_nodes":[],"categories_segments":[],"categories_sizes":[],"default_left":[0,0,0,0,0,0,0,0,0,0,0,0,0,0,0],"id":33,"left_children":[1,3,5,7,9,11,13,-1,-1,-1,-1,-1,-1,-1,-1],"loss_changes":[3.667652E1,1.7824003E1,2.8724438E1,1.7824299E1,7.2108383E0,2.4747711E1,6.724251E0,0E0,0E0,0E0,0E0,0E0,0E0,0E0,0E0],"parents":[2147483647,0,0,1,1,2,2,3,3,4,4,5,5,6,6],"right_children":[2,4,6,8,10,12,14,-1,-1,-1,-1,-1,-1,-1,-1],"split_conditions":[3E0,2.9160032E1,2E0,6.3113696E3,1.73E2,1E0,8.096735E2,1.4833847E-2,1.15519024E-1,1.793906E-1,-2.1606158E-2,-3.053457E-2,1.0302677E-1,-2.4345143E-1,1.06274225E-1],"split_indices":[11,21,23,10,3,20,8,0,0,0,0,0,0,0,0],"split_type":[0,0,0,0,0,0,0,0,0,0,0,0,0,0,0],"sum_hessian":[2.8418315E3,1.212051E3,1.6297805E3,1.163988E3,4.806295E1,1.5508225E3,7.895804E1,1.0897593E3,7.422875E1,3.96457E1,8.41725E0,1.4941516E3,5.667094E1,1.3434896E0,7.761455E1],"tree_param":{"num_deleted":"0","num_feature":"51","num_nodes":"15","size_leaf_vector":"1"}},{"base_weights":[1.8836837E-4,-1.6053515E-2,6.435705E-1,2.7211394E-2,-2.5707665E-1,1.5449503E-1,7.860089E-1,-1.3076921E-2,2.9371863E-2,-7.16101E-2,-3.2348172E-3,1.2029188E-1,-1.3447435E-1,6.4369224E-2,1.8007733E-1],"categories":[],"categories_nodes":[],"categories_segments":[],"categories_sizes":[],"default_left":[0,0,0,0,0,0,0,0,0,0,0,0,0,0,0],"id":34,"left_children":[1,3,5,7,9,11,13,-1,-1,-1,-1,-1,-1,-1,-1],"loss_changes":[2.9611422E1,2.8828907E1,4.7392406E0,2.5980875E1,1.0228424E1,6.6806955E0,2.5660172E0,0E0,0E0,0E0,0E0,0E0,0E0,0E0,0E0],"parents":[2147483647,0,0,1,1,2,2,3,3,4,4,5,5,6,6],"right_children":[2,4,6,8,10,12,14,-1,-1,-1,-1,-1,-1,-1,-1],"split_conditions":[1.9E3,1E0,8.38E2,1.443E3,1.5E3,6.53767E0,3.310391E0,-1.3076921E-2,2.9371863E-2,-7.16101E-2,-3.2348172E-3,1.2029188E-1,-1.3447435E-1,6.4369224E-2,1.8007733E-1],"split_indices":[19,18,7,7,19,21,21,0,0,0,0,0,0,0,0],"split_type":[0,0,0,0,0,0,0,0,0,0,0,0,0,0,0],"sum_hessian":[2.8317114E3,2.7629375E3,6.877403E1,2.3432068E3,4.197307E2,1.5982226E1,5.2791805E1,1.3211877E3,1.022019E3,2.954198E2,1.2431092E2,1.0551304E1,5.4309225E0,1.1190973E1,4.160083E1],"tree_param":{"num_deleted":"0","num_feature":"51","num_nodes":"15","size_leaf_vector":"1"}},{"base_weights":[2.8370743E-4,7.2349906E-2,-1.4282346E-1,1.763933E-1,-7.785859E-2,-4.3513557E-1,-8.048965E-2,1.8244049E-2,6.9597505E-2,3.88889E-3,-5.8589578E-2,-7.398426E-2,-2.0569909E-1,-4.470034E-3,-8.045878E-2],"categories":[],"categories_nodes":[],"categories_segments":[],"categories_sizes":[],"default_left":[0,0,0,0,0,0,0,0,0,0,0,0,0,0,0],"id":35,"left_children":[1,3,5,7,9,11,13,-1,-1,-1,-1,-1,-1,-1,-1],"loss_changes":[2.9093565E1,2.9335175E1,1.7180405E1,1.61726E1,1.6088585E1,6.0366955E0,1.4584055E1,0E0,0E0,0E0,0E0,0E0,0E0,0E0,0E0],"parents":[2147483647,0,0,1,1,2,2,3,3,4,4,5,5,6,6],"right_children":[2,4,6,8,10,12,14,-1,-1,-1,-1,-1,-1,-1,-1],"split_conditions":[1E0,1E1,3.5E1,9E-1,-5.861593E-1,3.1825998E1,8.3074033E-1,1.8244049E-2,6.9597505E-2,3.88889E-3,-5.8589578E-2,-7.398426E-2,-2.0569909E-1,-4.470034E-3,-8.045878E-2],"split_indices":[15,12,3,0,6,6,1,0,0,0,0,0,0,0,0],"split_type":[0,0,0,0,0,0,0,0,0,0,0,0,0,0,0],"sum_hessian":[2.819004E3,1.8751875E3,9.438163E2,1.1077318E3,7.674557E2,1.6483725E2,7.7897906E2,7.4130634E2,3.664255E2,5.290372E2,2.3841855E2,1.4997717E2,1.4860079E1,6.6068445E2,1.18294586E2],"tree_param":{"num_deleted":"0","num_feature":"51","num_nodes":"15","size_leaf_vector":"1"}},{"base_weights":[4.8823593E-5,-6.153944E-2,1.6424812E-1,1.1326547E-1,-1.8960267E-1,2.2773986E-1,-1.9008294E-1,1.5897205E-2,1.1943888E-1,-4.5328785E-2,7.372066E-2,8.9612074E-2,3.1183241E-2,-6.549659E-2,9.158245E-2],"categories":[],"categories_nodes":[],"categories_segments":[],"categories_sizes":[],"default_left":[0,0,0,0,0,0,0,0,0,0,0,0,0,0,0],"id":36,"left_children":[1,3,5,7,9,11,13,-1,-1,-1,-1,-1,-1,-1,-1],"loss_changes":[2.8333622E1,4.5633816E1,1.7236507E1,1.404622E1,2.4406834E1,1.0193157E1,1.05383415E1,0E0,0E0,0E0,0E0,0E0,0E0,0E0,0E0],"parents":[2147483647,0,0,1,1,2,2,3,3,4,4,5,5,6,6],"right_children":[2,4,6,8,10,12,14,-1,-1,-1,-1,-1,-1,-1,-1],"split_conditions":[2.4E1,1E0,2.533756E1,1E0,6.5654673E3,3.2180137E3,5.2224644E1,1.5897205E-2,1.1943888E-1,-4.5328785E-2,7.372066E-2,8.9612074E-2,3.1183241E-2,-6.549659E-2,9.158245E-2],"split_indices":[17,17,6,47,10,8,6,0,0,0,0,0,0,0,0],"split_type":[0,0,0,0,0,0,0,0,0,0,0,0,0,0,0],"sum_hessian":[2.799773E3,2.0365312E3,7.6324176E2,8.6116547E2,1.1753658E3,6.4756366E2,1.156781E2,8.060644E2,5.5101048E1,1.1027817E3,7.258404E1,1.5791568E2,4.8964798E2,9.584902E1,1.9829077E1],"tree_param":{"num_deleted":"0","num_feature":"51","num_nodes":"15","size_leaf_vector":"1"}},{"base_weights":[1.2597052E-4,9.6127085E-2,-1.1254565E-1,5.618372E-2,4.193676E-1,1.9603819E-1,-1.5774994E-1,2.715508E-2,-5.4377627E-2,-1.102465E-1,8.954992E-2,1.453318E-2,1.14114605E-1,-3.328147E-2,2.3478475E-1],"categories":[],"categories_nodes":[],"categories_segments":[],"categories_sizes":[],"default_left":[0,0,0,0,0,0,0,0,0,0,0,0,0,0,0],"id":37,"left_children":[1,3,5,7,9,11,13,-1,-1,-1,-1,-1,-1,-1,-1],"loss_changes":[3.021031E1,1.9447227E1,1.7954641E1,3.5113907E1,4.811472E0,7.5652933E0,1.3122597E1,0E0,0E0,0E0,0E0,0E0,0E0,0E0,0E0],"parents":[2147483647,0,0,1,1,2,2,3,3,4,4,5,5,6,6],"right_children":[2,4,6,8,10,12,14,-1,-1,-1,-1,-1,-1,-1,-1],"split_conditions":[1E0,4.427514E-1,1E0,2.3358423E-2,4.9457228E-1,5.8974604E3,5.298491E1,2.715508E-2,-5.4377627E-2,-1.102465E-1,8.954992E-2,1.453318E-2,1.14114605E-1,-3.328147E-2,2.3478475E-1],"split_indices":[22,5,16,5,21,9,21,0,0,0,0,0,0,0,0],"split_type":[0,0,0,0,0,0,0,0,0,0,0,0,0,0,0],"sum_hessian":[2.7909575E3,1.5070404E3,1.2839172E3,1.3423391E3,1.6470126E2,1.6362263E2,1.1202946E3,1.0807344E3,2.616048E2,4.155925E0,1.6054535E2,1.23978096E2,3.964453E1,1.1139277E3,6.366781E0],"tree_param":{"num_deleted":"0","num_feature":"51","num_nodes":"15","size_leaf_vector":"1"}},{"base_weights":[1.9715255E-4,1.6865583E-1,-5.5355288E-2,1.2969747E-1,6.5261483E-1,-1.6880147E-1,8.721372E-2,1.918014E-2,1.4135598E-1,5.4778792E-2,2.1109955E-1,-5.7685304E-2,-1.4304498E-3,9.777591E-3,9.748317E-2],"categories":[],"categories_nodes":[],"categories_segments":[],"categories_sizes":[],"default_left":[0,0,0,0,0,0,0,0,0,0,0,0,0,0,0],"id":38,"left_children":[1,3,5,7,9,11,13,-1,-1,-1,-1,-1,-1,-1,-1],"loss_changes":[2.6047094E1,1.29291935E1,3.386811E1,1.2415609E1,7.5193043E0,2.2543922E1,1.421224E1,0E0,0E0,0E0,0E0,0E0,0E0,0E0,0E0],"parents":[2147483647,0,0,1,1,2,2,3,3,4,4,5,5,6,6],"right_children":[2,4,6,8,10,12,14,-1,-1,-1,-1,-1,-1,-1,-1],"split_conditions":[4.2263296E3,1E0,5.2212104E3,1.2646124E0,4E1,1E0,2.0145967E1,1.918014E-2,1.4135598E-1,5.4778792E-2,2.1109955E-1,-5.7685304E-2,-1.4304498E-3,9.777591E-3,9.748317E-2],"split_indices":[10,47,10,5,4,49,21,0,0,0,0,0,0,0,0],"split_type":[0,0,0,0,0,0,0,0,0,0,0,0,0,0,0],"sum_hessian":[2.7813198E3,6.892337E2,2.0920862E3,6.39058E2,5.0175716E1,1.1649325E3,9.271536E2,6.0480383E2,3.4254112E1,2.6729294E1,2.3446423E1,6.690397E2,4.9589285E2,8.471478E2,8.000582E1],"tree_param":{"num_deleted":"0","num_feature":"51","num_nodes":"15","size_leaf_vector":"1"}},{"base_weights":[2.9328468E-4,-6.660155E-2,1.19783886E-1,4.933199E-2,-2.3915257E-1,9.9426374E-2,1.127302E0,1.387599E-2,-1.3461156E-1,-6.6568345E-2,7.4248235E-3,1.2737448E-2,1.1160109E-1,2.851398E-1,5.5720676E-2],"categories":[],"categories_nodes":[],"categories_segments":[],"categories_sizes":[],"default_left":[0,0,0,0,0,0,0,0,0,0,0,0,0,0,0],"id":39,"left_children":[1,3,5,7,9,11,13,-1,-1,-1,-1,-1,-1,-1,-1],"loss_changes":[2.2181988E1,3.5601406E1,2.0316204E1,1.5469791E1,1.852296E1,1.59826145E1,4.573885E0,0E0,0E0,0E0,0E0,0E0,0E0,0E0,0E0],"parents":[2147483647,0,0,1,1,2,2,3,3,4,4,5,5,6,6],"right_children":[2,4,6,8,10,12,14,-1,-1,-1,-1,-1,-1,-1,-1],"split_conditions":[5E0,3E0,5.551146E3,1E0,2.3E1,6E1,5E1,1.387599E-2,-1.3461156E-1,-6.6568345E-2,7.4248235E-3,1.2737448E-2,1.1160109E-1,2.851398E-1,5.5720676E-2],"split_indices":[24,24,10,35,17,4,4,0,0,0,0,0,0,0,0],"split_type":[0,0,0,0,0,0,0,0,0,0,0,0,0,0,0],"sum_hessian":[2.773073E3,1.7780845E3,9.9498846E2,1.0639513E3,7.1413324E2,9.7635925E2,1.8629248E1,1.0361011E3,2.7850204E1,5.3313513E2,1.809981E2,9.0682513E2,6.953407E1,1.3280164E1,5.349085E0],"tree_param":{"num_deleted":"0","num_feature":"51","num_nodes":"15","size_leaf_vector":"1"}},{"base_weights":[3.35404E-4,-2.435752E-1,3.4969572E-2,2.7482307E-1,-3.032496E-1,-7.9666674E-2,1.1530576E-1,-5.5502057E-3,2.0149767E-1,-7.118153E-2,1.4942177E-2,-2.9606173E-2,1.783906E-2,3.565913E-2,-9.076389E-3],"categories":[],"categories_nodes":[],"categories_segments":[],"categories_sizes":[],"default_left":[0,0,0,0,0,0,0,0,0,0,0,0,0,0,0],"id":40,"left_children":[1,3,5,7,9,11,13,-1,-1,-1,-1,-1,-1,-1,-1],"loss_changes":[2.3415073E1,1.0744923E1,2.2361755E1,8.031276E0,6.1872845E0,1.1565001E1,1.445653E1,0E0,0E0,0E0,0E0,0E0,0E0,0E0,0E0],"parents":[2147483647,0,0,1,1,2,2,3,3,4,4,5,5,6,6],"right_children":[2,4,6,8,10,12,14,-1,-1,-1,-1,-1,-1,-1,-1],"split_conditions":[2E-1,2.6239387E-3,1E0,5E0,8.79216E-1,5E1,1E0,-5.5502057E-3,2.0149767E-1,-7.118153E-2,1.4942177E-2,-2.9606173E-2,1.783906E-2,3.565913E-2,-9.076389E-3],"split_indices":[0,5,14,24,5,4,46,0,0,0,0,0,0,0,0],"split_type":[0,0,0,0,0,0,0,0,0,0,0,0,0,0,0],"sum_hessian":[2.7697803E3,3.436435E2,2.4261367E3,3.5102108E1,3.0854138E2,9.996656E2,1.4264711E3,2.5523577E1,9.578533E0,2.7086273E2,3.767865E1,7.116683E2,2.879973E2,1.0246835E3,4.017876E2],"tree_param":{"num_deleted":"0","num_feature":"51","num_nodes":"15","size_leaf_vector":"1"}},{"base_weights":[2.8764224E-4,-7.2635844E-2,1.05537854E-1,-1.5655164E-1,3.3674344E-2,7.87725E-2,6.103511E-1,3.075478E-2,-4.3107547E-2,1.8677112E-2,-3.4131967E-2,8.904959E-3,1.0807436E-1,9.9302895E-2,2.7531642E-1],"categories":[],"categories_nodes":[],"categories_segments":[],"categories_sizes":[],"default_left":[0,0,0,0,0,0,0,0,0,0,0,0,0,0,0],"id":41,"left_children":[1,3,5,7,9,11,13,-1,-1,-1,-1,-1,-1,-1,-1],"loss_changes":[2.1172733E1,1.454262E1,1.520697E1,1.67065E1,8.79674E0,1.6944098E1,4.2621593E0,0E0,0E0,0E0,0E0,0E0,0E0,0E0,0E0],"parents":[2147483647,0,0,1,1,2,2,3,3,4,4,5,5,6,6],"right_children":[2,4,6,8,10,12,14,-1,-1,-1,-1,-1,-1,-1,-1],"split_conditions":[1.503E3,5E0,7E0,1E0,1.48E2,1E0,2.08E2,3.075478E-2,-4.3107547E-2,1.8677112E-2,-3.4131967E-2,8.904959E-3,1.0807436E-1,9.9302895E-2,2.7531642E-1],"split_indices":[7,24,24,24,3,47,3,0,0,0,0,0,0,0,0],"split_type":[0,0,0,0,0,0,0,0,0,0,0,0,0,0,0],"sum_hessian":[2.7565872E3,1.6285457E3,1.1280416E3,9.0986914E2,7.1867645E2,1.0723418E3,5.569985E1,1.4506673E2,7.648024E2,5.565752E2,1.6210129E2,9.9929675E2,7.304496E1,4.992991E1,5.769939E0],"tree_param":{"num_deleted":"0","num_feature":"51","num_nodes":"15","size_leaf_vector":"1"}},{"base_weights":[4.1121343E-4,4.028872E-2,-2.0743169E-1,8.023306E-2,-1.9722843E-1,-1.2102477E-1,-5.0750875E-1,1.0413832E-2,7.966445E-2,-4.86874E-2,9.676933E-2,-3.43288E-2,1.0859101E-1,1.8782932E-2,-1.2201728E-1],"categories":[],"categories_nodes":[],"categories_segments":[],"categories_sizes":[],"default_left":[0,0,0,0,0,0,0,0,0,0,0,0,0,0,0],"id":42,"left_children":[1,3,5,7,9,11,13,-1,-1,-1,-1,-1,-1,-1,-1],"loss_changes":[2.2853798E1,2.196495E1,1.1447723E1,1.7727562E1,1.0608709E1,1.1720656E1,6.1602364E0,0E0,0E0,0E0,0E0,0E0,0E0,0E0,0E0],"parents":[2147483647,0,0,1,1,2,2,3,3,4,4,5,5,6,6],"right_children":[2,4,6,8,10,12,14,-1,-1,-1,-1,-1,-1,-1,-1],"split_conditions":[8E0,8.3509505E-1,1E0,9.9949235E-1,6.344291E3,2.18E2,9.270819E-2,1.0413832E-2,7.966445E-2,-4.86874E-2,9.676933E-2,-3.43288E-2,1.0859101E-1,1.8782932E-2,-1.2201728E-1],"split_indices":[2,1,48,5,10,2,1,0,0,0,0,0,0,0,0],"split_type":[0,0,0,0,0,0,0,0,0,0,0,0,0,0,0],"sum_hessian":[2.7553625E3,2.3124866E3,4.4287607E2,1.9801396E3,3.3234686E2,3.4495102E2,9.7925026E1,1.820146E3,1.5999368E2,3.118327E2,2.0514187E1,3.212051E2,2.3745926E1,1.4280632E1,8.3644394E1],"tree_param":{"num_deleted":"0","num_feature":"51","num_nodes":"15","size_leaf_vector":"1"}},{"base_weights":[2.4074462E-4,8.0903575E-2,-9.442125E-2,-8.949188E-2,1.3624455E-1,1.9999035E-2,-1.8502025E-1,-7.027432E-3,-1.00461006E-1,1.2760614E-2,5.684924E-2,-1.8745406E-2,4.3956783E-2,-4.3240562E-2,5.871129E-2],"categories":[],"categories_nodes":[],"categories_segments":[],"categories_sizes":[],"default_left":[0,0,0,0,0,0,0,0,0,0,0,0,0,0,0],"id":43,"left_children":[1,3,5,7,9,11,13,-1,-1,-1,-1,-1,-1,-1,-1],"loss_changes":[2.096072E1,1.3988541E1,1.309594E1,8.149032E0,1.1981085E1,1.2721676E1,1.0583551E1,0E0,0E0,0E0,0E0,0E0,0E0,0E0,0E0],"parents":[2147483647,0,0,1,1,2,2,3,3,4,4,5,5,6,6],"right_children":[2,4,6,8,10,12,14,-1,-1,-1,-1,-1,-1,-1,-1],"split_conditions":[1E0,1E0,3.3032876E-1,8E0,9E-1,1.585E3,2.85E2,-7.027432E-3,-1.00461006E-1,1.2760614E-2,5.684924E-2,-1.8745406E-2,4.3956783E-2,-4.3240562E-2,5.871129E-2],"split_indices":[22,30,1,2,0,7,13,0,0,0,0,0,0,0,0],"split_type":[0,0,0,0,0,0,0,0,0,0,0,0,0,0,0],"sum_hessian":[2.7430928E3,1.4811387E3,1.261954E3,3.6296097E2,1.1181777E3,5.580078E2,7.0394617E2,3.2168954E2,4.1271446E1,7.5168567E2,3.6649203E2,3.559288E2,2.0207898E2,6.6139966E2,4.2546494E1],"tree_param":{"num_deleted":"0","num_feature":"51","num_nodes":"15","size_leaf_vector":"1"}},{"base_weights":[1.8225223E-4,6.1835457E-2,-1.2222035E-1,-1.7869396E-2,1.5773574E-1,-1.6395375E-1,2.022331E-1,1.3739744E-2,-3.9614853E-2,1.6459597E-2,6.4531736E-2,-2.179185E-2,-8.63164E-2,-1.4011417E-1,5.330495E-2],"categories":[],"categories_nodes":[],"categories_segments":[],"categories_sizes":[],"default_left":[0,0,0,0,0,0,0,0,0,0,0,0,0,0,0],"id":44,"left_children":[1,3,5,7,9,11,13,-1,-1,-1,-1,-1,-1,-1,-1],"loss_changes":[2.0594551E1,1.387521E1,1.2411105E1,1.5489199E1,1.0223301E1,1.1882122E1,6.259728E0,0E0,0E0,0E0,0E0,0E0,0E0,0E0,0E0],"parents":[2147483647,0,0,1,1,2,2,3,3,4,4,5,5,6,6],"right_children":[2,4,6,8,10,12,14,-1,-1,-1,-1,-1,-1,-1,-1],"split_conditions":[1E0,8E-1,1E0,-6.58739E-1,1.7E1,1.7E2,2.3E1,1.3739744E-2,-3.9614853E-2,1.6459597E-2,6.4531736E-2,-2.179185E-2,-8.63164E-2,-1.4011417E-1,5.330495E-2],"split_indices":[15,0,32,6,17,11,3,0,0,0,0,0,0,0,0],"split_type":[0,0,0,0,0,0,0,0,0,0,0,0,0,0,0],"sum_hessian":[2.7270144E3,1.8138749E3,9.1313934E2,9.910254E2,8.2284955E2,8.0950946E2,1.0362991E2,6.698546E2,3.211708E2,5.656249E2,2.5722464E2,6.7268713E2,1.3682233E2,6.231297E0,9.739862E1],"tree_param":{"num_deleted":"0","num_feature":"51","num_nodes":"15","size_leaf_vector":"1"}},{"base_weights":[6.556215E-5,-1.6491307E-2,4.3667176E-1,1.8591993E-1,-5.4066356E-2,-9.28178E-2,5.62568E-1,6.6677704E-2,8.237196E-3,-3.8927726E-3,-5.1811006E-2,1.0748669E-1,-9.4981454E-2,7.285685E-2,1.6729221E-1],"categories":[],"categories_nodes":[],"categories_segments":[],"categories_sizes":[],"default_left":[0,0,0,0,0,0,0,0,0,0,0,0,0,0,0],"id":45,"left_children":[1,3,5,7,9,11,13,-1,-1,-1,-1,-1,-1,-1,-1],"loss_changes":[1.9637005E1,1.9915745E1,6.6682987E0,8.737415E0,1.56581745E1,5.053128E0,4.0576897E0,0E0,0E0,0E0,0E0,0E0,0E0,0E0,0E0],"parents":[2147483647,0,0,1,1,2,2,3,3,4,4,5,5,6,6],"right_children":[2,4,6,8,10,12,14,-1,-1,-1,-1,-1,-1,-1,-1],"split_conditions":[1E0,4E0,8.05E2,1E0,1E0,7E-1,1E0,6.6677704E-2,8.237196E-3,-3.8927726E-3,-5.1811006E-2,1.0748669E-1,-9.4981454E-2,7.285685E-2,1.6729221E-1],"split_indices":[20,12,7,15,18,0,26,0,0,0,0,0,0,0,0],"split_type":[0,0,0,0,0,0,0,0,0,0,0,0,0,0,0],"sum_hessian":[2.7144875E3,2.6162375E3,9.825006E1,4.090105E2,2.207227E3,1.89238E1,7.932626E1,2.0194571E2,2.070648E2,1.8893893E3,3.178377E2,6.9889917E0,1.1934808E1,4.736592E1,3.1960344E1],"tree_param":{"num_deleted":"0","num_feature":"51","num_nodes":"15","size_leaf_vector":"1"}},{"base_weights":[1.8559341E-4,-2.0279523E-2,3.5464984E-1,9.1875754E-2,-8.3307505E-2,-4.50928E-1,4.2960775E-1,6.629951E-2,6.1268364E-3,-1.9466588E-2,1.3641742E-1,2.6934192E-2,-1.9141296E-1,5.0008904E-2,1.5630384E-1],"categories":[],"categories_nodes":[],"categories_segments":[],"categories_sizes":[],"default_left":[0,0,0,0,0,0,0,0,0,0,0,0,0,0,0],"id":46,"left_children":[1,3,5,7,9,11,13,-1,-1,-1,-1,-1,-1,-1,-1],"loss_changes":[1.9629509E1,1.8091898E1,9.112648E0,1.3503879E1,1.7654327E1,4.0002117E0,8.375784E0,0E0,0E0,0E0,0E0,0E0,0E0,0E0,0E0],"parents":[2147483647,0,0,1,1,2,2,3,3,4,4,5,5,6,6],"right_children":[2,4,6,8,10,12,14,-1,-1,-1,-1,-1,-1,-1,-1],"split_conditions":[2E0,2E0,6.85E2,2.744172E3,7E1,3.508134E-1,1.52E2,6.629951E-2,6.1268364E-3,-1.9466588E-2,1.3641742E-1,2.6934192E-2,-1.9141296E-1,5.0008904E-2,1.5630384E-1],"split_indices":[23,11,7,8,4,1,13,0,0,0,0,0,0,0,0],"split_type":[0,0,0,0,0,0,0,0,0,0,0,0,0,0,0],"sum_hessian":[2.7039775E3,2.5572751E3,1.467024E2,9.198998E2,1.6373754E3,1.2061445E1,1.3464095E2,1.8634988E2,7.3354987E2,1.6087683E3,2.860695E1,5.932028E0,6.1294174E0,9.028398E1,4.4356964E1],"tree_param":{"num_deleted":"0","num_feature":"51","num_nodes":"15","size_leaf_vector":"1"}},{"base_weights":[3.8532232E-4,-1.4538579E-1,4.6331696E-2,-1.8285322E-1,3.866569E-1,9.645671E-2,-1.04469694E-1,-2.4680458E-1,-3.367273E-2,1.1275426E-1,-1.625017E-1,3.6599588E-2,-1.4680097E-3,-5.456605E-2,1.0597552E-2],"categories":[],"categories_nodes":[],"categories_segments":[],"categories_sizes":[],"default_left":[0,0,0,0,0,0,0,0,0,0,0,0,0,0,0],"id":47,"left_children":[1,3,5,7,9,11,13,-1,-1,-1,-1,-1,-1,-1,-1],"loss_changes":[1.8051798E1,1.2946914E1,1.5500598E1,8.993551E0,9.5518E0,1.3821983E1,1.35799265E1,0E0,0E0,0E0,0E0,0E0,0E0,0E0,0E0],"parents":[2147483647,0,0,1,1,2,2,3,3,4,4,5,5,6,6],"right_children":[2,4,6,8,10,12,14,-1,-1,-1,-1,-1,-1,-1,-1],"split_conditions":[1E0,1E0,-4.6285078E-1,-1.8406327E0,1E0,4.504142E-1,1.323E3,-2.4680458E-1,-3.367273E-2,1.1275426E-1,-1.625017E-1,3.6599588E-2,-1.4680097E-3,-5.456605E-2,1.0597552E-2],"split_indices":[30,47,6,6,34,1,7,0,0,0,0,0,0,0,0],"split_type":[0,0,0,0,0,0,0,0,0,0,0,0,0,0,0],"sum_hessian":[2.6932363E3,6.4493335E2,2.048303E3,6.0311707E2,4.1816303E1,1.5375842E3,5.1071866E2,7.056086E0,5.96061E2,3.689661E1,4.9196935E0,8.380726E2,6.9951166E2,2.4645995E2,2.6425873E2],"tree_param":{"num_deleted":"0","num_feature":"51","num_nodes":"15","size_leaf_vector":"1"}},{"base_weights":[1.5086764E-4,-1.2128337E-2,5.336672E-1,2.1338882E-2,-1.8782045E-1,5.744204E-1,-8.917272E-2,8.475346E-3,-6.1950535E-2,-5.3306848E-2,7.525593E-3,1.6156791E-1,7.7456E-2],"categories":[],"categories_nodes":[],"categories_segments":[],"categories_sizes":[],"default_left":[0,0,0,0,0,0,0,0,0,0,0,0,0],"id":48,"left_children":[1,3,5,7,9,11,-1,-1,-1,-1,-1,-1,-1],"loss_changes":[1.7605555E1,1.5450267E1,2.6696358E0,1.5389448E1,7.471033E0,2.2417831E0,0E0,0E0,0E0,0E0,0E0,0E0,0E0],"parents":[2147483647,0,0,1,1,2,2,3,3,4,4,5,5],"right_children":[2,4,6,8,10,12,-1,-1,-1,-1,-1,-1,-1],"split_conditions":[1.9E3,8E0,3.4362433E0,8.982339E-1,9.1E1,1E0,-8.917272E-2,8.475346E-3,-6.1950535E-2,-5.3306848E-2,7.525593E-3,1.6156791E-1,7.7456E-2],"split_indices":[19,2,5,1,2,49,0,0,0,0,0,0,0],"split_type":[0,0,0,0,0,0,0,0,0,0,0,0,0],"sum_hessian":[2.6854082E3,2.6259478E3,5.946052E1,2.2065122E3,4.1943533E2,5.7482548E1,1.9779727E0,2.075505E3,1.3100737E2,3.1075507E2,1.0868027E2,2.4102669E1,3.337988E1],"tree_param":{"num_deleted":"0","num_feature":"51","num_nodes":"13","size_leaf_vector":"1"}},{"base_weights":[1.4799181E-4,-2.838979E-2,2.0254451E-1,6.294131E-2,-1.0625652E-1,1.6477938E-1,1.063377E0,4.081306E-5,3.6959443E-2,-2.6947683E-2,5.3545844E-2,5.7597496E-2,-6.9340714E-3,2.4050961E-1,3.65252E-2],"categories":[],"categories_nodes":[],"categories_segments":[],"categories_sizes":[],"default_left":[0,0,0,0,0,0,0,0,0,0,0,0,0,0,0],"id":49,"left_children":[1,3,5,7,9,11,13,-1,-1,-1,-1,-1,-1,-1,-1],"loss_changes":[1.5456643E1,1.6685997E1,1.0575392E1,8.256334E0,1.3525169E1,7.823904E0,1.461443E0,0E0,0E0,0E0,0E0,0E0,0E0,0E0,0E0],"parents":[2147483647,0,0,1,1,2,2,3,3,4,4,5,5,6,6],"right_children":[2,4,6,8,10,12,14,-1,-1,-1,-1,-1,-1,-1,-1],"split_conditions":[3E1,3E0,1E0,5.134564E3,4.427514E-1,3.1E1,2.56669E-2,4.081306E-5,3.6959443E-2,-2.6947683E-2,5.3545844E-2,5.7597496E-2,-6.9340714E-3,2.4050961E-1,3.65252E-2],"split_indices":[17,11,20,9,5,17,5,0,0,0,0,0,0,0,0],"split_type":[0,0,0,0,0,0,0,0,0,0,0,0,0,0,0],"sum_hessian":[2.6740405E3,2.3443486E3,3.2969196E2,1.0789836E3,1.265365E3,3.1697742E2,1.271453E1,7.1293317E2,3.660504E2,1.1764119E3,8.8953094E1,1.95664E2,1.21313416E2,1.0664087E1,2.0504425E0],"tree_param":{"num_deleted":"0","num_feature":"51","num_nodes":"15","size_leaf_vector":"1"}},{"base_weights":[2.8603413E-4,4.495995E-2,-1.3910155E-1,-9.1191605E-2,1.7476988E-1,-1.6046041E-1,5.731077E-1,-3.0293236E-2,3.471819E-2,3.0383883E-2,1.248635E-1,-1.923567E-2,-7.601623E-2,1.6392061E-1,-5.7939358E-2],"categories":[],"categories_nodes":[],"categories_segments":[],"categories_sizes":[],"default_left":[0,0,0,0,0,0,0,0,0,0,0,0,0,0,0],"id":50,"left_children":[1,3,5,7,9,11,13,-1,-1,-1,-1,-1,-1,-1,-1],"loss_changes":[1.6630602E1,3.576136E1,9.952649E0,1.5791204E1,1.0544338E1,8.859354E0,4.2979836E0,0E0,0E0,0E0,0E0,0E0,0E0,0E0,0E0],"parents":[2147483647,0,0,1,1,2,2,3,3,4,4,5,5,6,6],"right_children":[2,4,6,8,10,12,14,-1,-1,-1,-1,-1,-1,-1,-1],"split_conditions":[1.48E2,5.3E1,1.9E3,1E0,2.4983252E1,1E0,8.179576E0,-3.0293236E-2,3.471819E-2,3.0383883E-2,1.248635E-1,-1.923567E-2,-7.601623E-2,1.6392061E-1,-5.7939358E-2],"split_indices":[3,3,19,37,21,46,21,0,0,0,0,0,0,0,0],"split_type":[0,0,0,0,0,0,0,0,0,0,0,0,0,0,0],"sum_hessian":[2.6687249E3,2.0215066E3,6.472183E2,9.867979E2,1.0347087E3,6.2912573E2,1.8092533E1,8.0416693E2,1.8263097E2,9.859318E2,4.877687E1,4.877897E2,1.4133607E2,1.4111172E1,3.9813619E0],"tree_param":{"num_deleted":"0","num_feature":"51","num_nodes":"15","size_leaf_vector":"1"}},{"base_weights":[3.4469E-4,-2.0565962E-2,2.5491047E-1,1.6590232E-2,-2.517618E-1,2.8265426E-1,-6.4015245E-1,1.8545806E-2,-1.5228646E-2,9.054885E-3,-6.7699455E-2,1.355773E-1,4.1547023E-2,-2.7199095E-1,-1.2244693E-2],"categories":[],"categories_nodes":[],"categories_segments":[],"categories_sizes":[],"default_left":[0,0,0,0,0,0,0,0,0,0,0,0,0,0,0],"id":51,"left_children":[1,3,5,7,9,11,13,-1,-1,-1,-1,-1,-1,-1,-1],"loss_changes":[1.4136844E1,2.10863E1,5.186899E0,1.4942338E1,8.771502E0,5.6694164E0,2.5699604E0,0E0,0E0,0E0,0E0,0E0,0E0,0E0,0E0],"parents":[2147483647,0,0,1,1,2,2,3,3,4,4,5,5,6,6],"right_children":[2,4,6,8,10,12,14,-1,-1,-1,-1,-1,-1,-1,-1],"split_conditions":[1.8962513E1,1.0014599E1,1E0,1.553758E-2,4.234168E3,2.5873904E3,3.9443815E-1,1.8545806E-2,-1.5228646E-2,9.054885E-3,-6.7699455E-2,1.355773E-1,4.1547023E-2,-2.7199095E-1,-1.2244693E-2],"split_indices":[21,21,33,5,10,8,1,0,0,0,0,0,0,0,0],"split_type":[0,0,0,0,0,0,0,0,0,0,0,0,0,0,0],"sum_hessian":[2.6537505E3,2.4531611E3,2.0058942E2,2.1142947E3,3.3886655E2,1.9522241E2,5.3670006E0,1.1610306E3,9.53264E2,7.669459E1,2.6217197E2,2.9826418E1,1.65396E2,1.7910452E0,3.5759552E0],"tree_param":{"num_deleted":"0","num_feature":"51","num_nodes":"15","size_leaf_vector":"1"}},{"base_weights":[2.1371077E-4,-8.724849E-2,6.02931E-2,1.6082987E-1,-1.3089116E-1,7.07016E-2,-7.677488E-1,-1.3299853E-2,6.3292734E-2,-1.24691045E-2,-4.8910197E-2,-1.7350532E-2,2.349802E-2,-1.741077E-1,9.7200505E-2],"categories":[],"categories_nodes":[],"categories_segments":[],"categories_sizes":[],"default_left":[0,0,0,0,0,0,0,0,0,0,0,0,0,0,0],"id":52,"left_children":[1,3,5,7,9,11,13,-1,-1,-1,-1,-1,-1,-1,-1],"loss_changes":[1.3938313E1,1.1715397E1,1.3606494E1,5.7540517E0,7.1452694E0,1.1457258E1,2.9495525E0,0E0,0E0,0E0,0E0,0E0,0E0,0E0,0E0],"parents":[2147483647,0,0,1,1,2,2,3,3,4,4,5,5,6,6],"right_children":[2,4,6,8,10,12,14,-1,-1,-1,-1,-1,-1,-1,-1],"split_conditions":[1E0,1E0,1E0,1.121E3,1.8632188E-2,4E-1,1.8E1,-1.3299853E-2,6.3292734E-2,-1.24691045E-2,-4.8910197E-2,-1.7350532E-2,2.349802E-2,-1.741077E-1,9.7200505E-2],"split_indices":[14,16,34,7,5,0,12,0,0,0,0,0,0,0,0],"split_type":[0,0,0,0,0,0,0,0,0,0,0,0,0,0,0],"sum_hessian":[2.6505532E3,1.0791293E3,1.571424E3,1.6104048E2,9.1808887E2,1.5528196E3,1.8604357E1,6.567861E1,9.536186E1,5.736701E2,3.4441873E2,3.5552856E2,1.197291E3,1.7477133E1,1.1272225E0],"tree_param":{"num_deleted":"0","num_feature":"51","num_nodes":"15","size_leaf_vector":"1"}},{"base_weights":[9.516012E-5,2.8658215E-2,-1.6390735E-1,-1.4438062E-2,1.4444757E-1,-1.0081598E-1,-5.028127E-1,1.53343035E-2,-1.6655028E-2,3.2478892E-3,5.2502025E-2,-1.1353318E-2,-1.293972E-1,-1.5289077E-1,1.9146873E-2],"categories":[],"categories_nodes":[],"categories_segments":[],"categories_sizes":[],"default_left":[0,0,0,0,0,0,0,0,0,0,0,0,0,0,0],"id":53,"left_children":[1,3,5,7,9,11,13,-1,-1,-1,-1,-1,-1,-1,-1],"loss_changes":[1.2393189E1,1.1245743E1,8.340088E0,1.0310486E1,9.247973E0,7.952717E0,9.67899E0,0E0,0E0,0E0,0E0,0E0,0E0,0E0,0E0],"parents":[2147483647,0,0,1,1,2,2,3,3,4,4,5,5,6,6],"right_children":[2,4,6,8,10,12,14,-1,-1,-1,-1,-1,-1,-1,-1],"split_conditions":[1E0,2.5E1,9.078668E0,1E0,4.688828E3,1E0,2.0895061E1,1.53343035E-2,-1.6655028E-2,3.2478892E-3,5.2502025E-2,-1.1353318E-2,-1.293972E-1,-1.5289077E-1,1.9146873E-2],"split_indices":[18,17,21,17,9,41,21,0,0,0,0,0,0,0,0],"split_type":[0,0,0,0,0,0,0,0,0,0,0,0,0,0,0],"sum_hessian":[2.64362E3,2.2521975E3,3.9142264E2,1.6419473E3,6.102501E2,3.3108466E2,6.0337982E1,7.066045E2,9.3534283E2,2.9310025E2,3.1714987E2,3.0739664E2,2.368804E1,4.1792263E1,1.8545717E1],"tree_param":{"num_deleted":"0","num_feature":"51","num_nodes":"15","size_leaf_vector":"1"}},{"base_weights":[-1.17294025E-4,1.14764705E-1,-4.222132E-2,1.7475401E-1,-9.687641E-2,-9.928488E-3,-2.7092326E-1,3.087989E-2,1.5689537E-1,-1.1357512E-1,2.2987197E-3,6.916447E-3,-3.0346496E-2,-6.949789E-2,1.477402E-2],"categories":[],"categories_nodes":[],"categories_segments":[],"categories_sizes":[],"default_left":[0,0,0,0,0,0,0,0,0,0,0,0,0,0,0],"id":54,"left_children":[1,3,5,7,9,11,13,-1,-1,-1,-1,-1,-1,-1,-1],"loss_changes":[1.2762436E1,9.001443E0,1.4257472E1,6.726143E0,8.016471E0,1.069102E1,6.331608E0,0E0,0E0,0E0,0E0,0E0,0E0,0E0,0E0],"parents":[2147483647,0,0,1,1,2,2,3,3,4,4,5,5,6,6],"right_children":[2,4,6,8,10,12,14,-1,-1,-1,-1,-1,-1,-1,-1],"split_conditions":[1.7691973E-1,1E0,1E0,3.5429443E1,2.544088E0,1E0,1.0183058E1,3.087989E-2,1.5689537E-1,-1.1357512E-1,2.2987197E-3,6.916447E-3,-3.0346496E-2,-6.949789E-2,1.477402E-2],"split_indices":[1,38,41,21,21,46,21,0,0,0,0,0,0,0,0],"split_type":[0,0,0,0,0,0,0,0,0,0,0,0,0,0,0],"sum_hessian":[2.6365034E3,7.066536E2,1.9298497E3,5.507257E2,1.5592792E2,1.6919841E3,2.3786563E2,5.3414734E2,1.6578363E1,2.8372934E1,1.27554985E2,1.2883433E3,4.036408E2,1.9463612E2,4.3229507E1],"tree_param":{"num_deleted":"0","num_feature":"51","num_nodes":"15","size_leaf_vector":"1"}},{"base_weights":[-1.5632524E-4,-1.6602267E-2,2.9299346E-1,-3.3221416E-2,2.8872097E-1,1.58684E-1,5.456242E-1,2.3686519E-2,-1.5605926E-2,4.1566495E-2,2.2029391E-1,-5.8630582E-2,5.8364034E-2,1.3684697E-1,-7.253747E-2],"categories":[],"categories_nodes":[],"categories_segments":[],"categories_sizes":[],"default_left":[0,0,0,0,0,0,0,0,0,0,0,0,0,0,0],"id":55,"left_children":[1,3,5,7,9,11,13,-1,-1,-1,-1,-1,-1,-1,-1],"loss_changes":[1.2659228E1,1.2625561E1,4.6461897E0,1.6038385E1,8.215592E0,5.648638E0,6.292141E0,0E0,0E0,0E0,0E0,0E0,0E0,0E0,0E0],"parents":[2147483647,0,0,1,1,2,2,3,3,4,4,5,5,6,6],"right_children":[2,4,6,8,10,12,14,-1,-1,-1,-1,-1,-1,-1,-1],"split_conditions":[2E0,6.5654673E3,8E-1,4.1768105E3,1.345E3,6.1E1,1E0,2.3686519E-2,-1.5605926E-2,4.1566495E-2,2.2029391E-1,-5.8630582E-2,5.8364034E-2,1.3684697E-1,-7.253747E-2],"split_indices":[23,10,0,10,11,13,18,0,0,0,0,0,0,0,0],"split_type":[0,0,0,0,0,0,0,0,0,0,0,0,0,0,0],"sum_hessian":[2.6237744E3,2.485291E3,1.3848349E2,2.3578418E3,1.27449265E2,9.147797E1,4.7005527E1,5.3739105E2,1.8204507E3,1.17055115E2,1.0394153E1,2.054626E1,7.09317E1,4.099611E1,6.009417E0],"tree_param":{"num_deleted":"0","num_feature":"51","num_nodes":"15","size_leaf_vector":"1"}},{"base_weights":[7.916742E-5,-1.1761955E-1,3.715795E-2,-2.3124546E-1,2.1083379E-1,8.835947E-2,-5.926711E-2,-5.3719945E-2,5.1960208E-2,2.0183062E-2,1.1429002E-1,-4.7539245E-2,2.2463804E-2,-2.7918208E-2,1.8025568E-2],"categories":[],"categories_nodes":[],"categories_segments":[],"categories_sizes":[],"default_left":[0,0,0,0,0,0,0,0,0,0,0,0,0,0,0],"id":56,"left_children":[1,3,5,7,9,11,13,-1,-1,-1,-1,-1,-1,-1,-1],"loss_changes":[1.1436521E1,2.3478386E1,9.84383E0,8.634134E0,6.359055E0,1.0198314E1,8.313675E0,0E0,0E0,0E0,0E0,0E0,0E0,0E0,0E0],"parents":[2147483647,0,0,1,1,2,2,3,3,4,4,5,5,6,6],"right_children":[2,4,6,8,10,12,14,-1,-1,-1,-1,-1,-1,-1,-1],"split_conditions":[1E0,1E0,-6.58739E-1,1E0,1.911E3,5.04E2,9E-1,-5.3719945E-2,5.1960208E-2,2.0183062E-2,1.1429002E-1,-4.7539245E-2,2.2463804E-2,-2.7918208E-2,1.8025568E-2],"split_indices":[30,32,6,47,7,7,0,0,0,0,0,0,0,0,0],"split_type":[0,0,0,0,0,0,0,0,0,0,0,0,0,0,0],"sum_hessian":[2.6185742E3,6.2679004E2,1.991784E3,4.6590854E2,1.6088153E2,1.3010256E3,6.907584E2,4.3339304E2,3.251551E1,1.2427994E2,3.660159E1,8.844827E1,1.2125774E3,4.4926923E2,2.4148917E2],"tree_param":{"num_deleted":"0","num_feature":"51","num_nodes":"15","size_leaf_vector":"1"}},{"base_weights":[7.0324975E-5,-1.5256834E-2,3.0274552E-1,-5.9889174E-1,-7.5295735E-3,-3.228455E-1,3.7085086E-1,-6.0013857E-2,-2.0487197E-1,2.1966903E-2,-9.336124E-3,2.0835381E-4,-3.4782693E-1,1.5733108E-2,9.882708E-2],"categories":[],"categories_nodes":[],"categories_segments":[],"categories_sizes":[],"default_left":[0,0,0,0,0,0,0,0,0,0,0,0,0,0,0],"id":57,"left_children":[1,3,5,7,9,11,13,-1,-1,-1,-1,-1,-1,-1,-1],"loss_changes":[1.2111888E1,1.1202439E1,5.481105E0,3.8193178E0,1.1278822E1,5.9141607E0,4.0657215E0,0E0,0E0,0E0,0E0,0E0,0E0,0E0,0E0],"parents":[2147483647,0,0,1,1,2,2,3,3,4,4,5,5,6,6],"right_children":[2,4,6,8,10,12,14,-1,-1,-1,-1,-1,-1,-1,-1],"split_conditions":[2.85E2,1E0,1.0343753E-1,-4.6285078E-1,1.6438566E-1,9.694335E-2,3.6135123E0,-6.0013857E-2,-2.0487197E-1,2.1966903E-2,-9.336124E-3,2.0835381E-4,-3.4782693E-1,1.5733108E-2,9.882708E-2],"split_indices":[13,13,1,6,1,1,21,0,0,0,0,0,0,0,0],"split_type":[0,0,0,0,0,0,0,0,0,0,0,0,0,0,0],"sum_hessian":[2.608803E3,2.483967E3,1.2483593E2,3.1458042E1,2.452509E3,1.1888853E1,1.12947075E2,1.9481037E1,1.1977004E1,6.1302454E2,1.8394845E3,1.048934E1,1.3995137E0,3.400145E1,7.8945625E1],"tree_param":{"num_deleted":"0","num_feature":"51","num_nodes":"15","size_leaf_vector":"1"}},{"base_weights":[-8.318599E-5,-6.519035E-2,6.1660405E-2,9.1370896E-2,-1.3279928E-1,-6.998239E-2,1.13018125E-1,-1.24247305E-1,2.581325E-2,-6.493638E-2,-1.6174091E-2,-4.3088023E-2,1.3568577E-2,2.9989362E-2,-2.901124E-2],"categories":[],"categories_nodes":[],"categories_segments":[],"categories_sizes":[],"default_left":[0,0,0,0,0,0,0,0,0,0,0,0,0,0,0],"id":58,"left_children":[1,3,5,7,9,11,13,-1,-1,-1,-1,-1,-1,-1,-1],"loss_changes":[1.046457E1,1.3423951E1,9.041063E0,1.0361202E1,8.795392E0,7.5441895E0,9.185284E0,0E0,0E0,0E0,0E0,0E0,0E0,0E0,0E0],"parents":[2147483647,0,0,1,1,2,2,3,3,4,4,5,5,6,6],"right_children":[2,4,6,8,10,12,14,-1,-1,-1,-1,-1,-1,-1,-1],"split_conditions":[4.6726157E3,3.0587932E3,1.051E3,3.09E2,4E-1,2E0,1.4E1,-1.24247305E-1,2.581325E-2,-6.493638E-2,-1.6174091E-2,-4.3088023E-2,1.3568577E-2,2.9989362E-2,-2.901124E-2],"split_indices":[9,9,7,7,0,17,2,0,0,0,0,0,0,0,0],"split_type":[0,0,0,0,0,0,0,0,0,0,0,0,0,0,0],"sum_hessian":[2.601159E3,1.2660662E3,1.3350929E3,3.8173508E2,8.843311E2,3.7458197E2,9.6051086E2,1.8400698E1,3.6333438E2,1.8723291E2,6.970982E2,1.8197086E2,1.9261111E2,8.4063995E2,1.1987092E2],"tree_param":{"num_deleted":"0","num_feature":"51","num_nodes":"15","size_leaf_vector":"1"}},{"base_weights":[-1.7398388E-4,4.975659E-2,-9.9457465E-2,-9.303838E-2,9.058485E-2,4.905966E-2,-1.5871058E-1,-3.1598486E-2,5.7652395E-2,3.2551628E-2,3.9280002E-4,-1.1797815E-1,2.1084307E-2,-3.8208373E-2,3.455874E-2],"categories":[],"categories_nodes":[],"categories_segments":[],"categories_sizes":[],"default_left":[0,0,0,0,0,0,0,0,0,0,0,0,0,0,0],"id":59,"left_children":[1,3,5,7,9,11,13,-1,-1,-1,-1,-1,-1,-1,-1],"loss_changes":[1.2885644E1,1.0091762E1,7.6621094E0,9.582149E0,8.605487E0,9.022741E0,6.699377E0,0E0,0E0,0E0,0E0,0E0,0E0,0E0,0E0],"parents":[2147483647,0,0,1,1,2,2,3,3,4,4,5,5,6,6],"right_children":[2,4,6,8,10,12,14,-1,-1,-1,-1,-1,-1,-1,-1],"split_conditions":[1E0,3E1,1E0,3.9632924E-2,1E0,4.5E1,1E0,-3.1598486E-2,5.7652395E-2,3.2551628E-2,3.9280002E-4,-1.1797815E-1,2.1084307E-2,-3.8208373E-2,3.455874E-2],"split_indices":[15,4,16,5,22,13,32,0,0,0,0,0,0,0,0],"split_type":[0,0,0,0,0,0,0,0,0,0,0,0,0,0,0],"sum_hessian":[2.5973384E3,1.7285391E3,8.687993E2,3.8405286E2,1.3444862E3,2.4781828E2,6.20981E2,3.286529E2,5.5399963E1,7.4054553E2,6.039407E2,1.9320778E1,2.284975E2,5.661853E2,5.4795753E1],"tree_param":{"num_deleted":"0","num_feature":"51","num_nodes":"15","size_leaf_vector":"1"}},{"base_weights":[-1.8216086E-4,3.8602382E-2,-1.10990405E-1,-7.399133E-2,1.503975E-1,1.6587669E-1,-1.9391619E-1,-7.3316814E-3,-7.279888E-2,9.899674E-2,2.5598481E-2,5.7077385E-2,-3.686994E-2,-6.9700824E-3,-6.196943E-2],"categories":[],"categories_nodes":[],"categories_segments":[],"categories_sizes":[],"default_left":[0,0,0,0,0,0,0,0,0,0,0,0,0,0,0],"id":60,"left_children":[1,3,5,7,9,11,13,-1,-1,-1,-1,-1,-1,-1,-1],"loss_changes":[1.1119386E1,2.4135118E1,1.5433512E1,1.0331717E1,7.3637333E0,6.546429E0,9.516737E0,0E0,0E0,0E0,0E0,0E0,0E0,0E0,0E0],"parents":[2147483647,0,0,1,1,2,2,3,3,4,4,5,5,6,6],"right_children":[2,4,6,8,10,12,14,-1,-1,-1,-1,-1,-1,-1,-1],"split_conditions":[1.41E2,5.3E1,4E0,2.11E2,6.1938785E-2,1E0,5E0,-7.3316814E-3,-7.279888E-2,9.899674E-2,2.5598481E-2,5.7077385E-2,-3.686994E-2,-6.9700824E-3,-6.196943E-2],"split_indices":[3,3,12,11,1,46,11,0,0,0,0,0,0,0,0],"split_type":[0,0,0,0,0,0,0,0,0,0,0,0,0,0,0],"sum_hessian":[2.5853223E3,1.9155149E3,6.6980725E2,9.545173E2,9.609976E2,1.5414798E2,5.156593E2,8.466518E2,1.0786549E2,5.7381905E1,9.036157E2,1.1506773E2,3.9080246E1,2.179359E2,2.977234E2],"tree_param":{"num_deleted":"0","num_feature":"51","num_nodes":"15","size_leaf_vector":"1"}},{"base_weights":[-1.2311769E-4,-1.3063743E-2,3.4567592E-1,-3.4693196E-2,1.7086338E-1,2.1959957E-2,6.1968E-1,2.7443187E-3,-5.457413E-2,2.5094E-2,1.5239841E-1,7.883821E-2,-7.556817E-2,1.4135826E-1,-1.2285819E-1],"categories":[],"categories_nodes":[],"categories_segments":[],"categories_sizes":[],"default_left":[0,0,0,0,0,0,0,0,0,0,0,0,0,0,0],"id":61,"left_children":[1,3,5,7,9,11,13,-1,-1,-1,-1,-1,-1,-1,-1],"loss_changes":[1.1530911E1,9.887332E0,8.231221E0,2.5641666E1,6.9221177E0,6.644493E0,5.8415833E0,0E0,0E0,0E0,0E0,0E0,0E0,0E0,0E0],"parents":[2147483647,0,0,1,1,2,2,3,3,4,4,5,5,6,6],"right_children":[2,4,6,8,10,12,14,-1,-1,-1,-1,-1,-1,-1,-1],"split_conditions":[1E0,4.427514E-1,2E0,2.5117371E-2,8.79E2,-8.666846E-1,1.0072295E4,2.7443187E-3,-5.457413E-2,2.5094E-2,1.5239841E-1,7.883821E-2,-7.556817E-2,1.4135826E-1,-1.2285819E-1],"split_indices":[20,5,17,5,11,6,8,0,0,0,0,0,0,0,0],"split_type":[0,0,0,0,0,0,0,0,0,0,0,0,0,0,0],"sum_hessian":[2.5748137E3,2.4828613E3,9.195238E1,2.222331E3,2.605302E2,4.2647537E1,4.9304836E1,1.84769E3,3.7464114E2,2.4307639E2,1.745383E1,2.209252E1,2.0555017E1,4.645276E1,2.8520775E0],"tree_param":{"num_deleted":"0","num_feature":"51","num_nodes":"15","size_leaf_vector":"1"}},{"base_weights":[-4.2326716E-5,-5.2513126E-2,7.398161E-2,-1.5350187E-1,1.3380911E-2,1.0496426E-1,-1.810242E-1,-4.3932587E-2,5.171454E-3,1.5164927E-2,-3.7856657E-2,1.5934505E-2,9.278806E-2,-1.4228405E-1,-7.7351383E-3],"categories":[],"categories_nodes":[],"categories_segments":[],"categories_sizes":[],"default_left":[0,0,0,0,0,0,0,0,0,0,0,0,0,0,0],"id":62,"left_children":[1,3,5,7,9,11,13,-1,-1,-1,-1,-1,-1,-1,-1],"loss_changes":[9.996397E0,1.0024467E1,8.453658E0,7.063528E0,1.1560006E1,8.611385E0,8.732364E0,0E0,0E0,0E0,0E0,0E0,0E0,0E0,0E0],"parents":[2147483647,0,0,1,1,2,2,3,3,4,4,5,5,6,6],"right_children":[2,4,6,8,10,12,14,-1,-1,-1,-1,-1,-1,-1,-1],"split_conditions":[1E0,1E0,1E0,7.2547993E3,-4.1700274E-1,6.3113696E3,5E-1,-4.3932587E-2,5.171454E-3,1.5164927E-2,-3.7856657E-2,1.5934505E-2,9.278806E-2,-1.4228405E-1,-7.7351383E-3],"split_indices":[49,14,31,8,6,10,0,0,0,0,0,0,0,0,0],"split_type":[0,0,0,0,0,0,0,0,0,0,0,0,0,0,0],"sum_hessian":[2.571674E3,1.5050978E3,1.0665762E3,5.9376624E2,9.1133154E2,9.51553E2,1.1502322E2,4.335981E2,1.6016815E2,6.9715424E2,2.1417729E2,8.900652E2,6.14878E1,2.3492289E1,9.153093E1],"tree_param":{"num_deleted":"0","num_feature":"51","num_nodes":"15","size_leaf_vector":"1"}},{"base_weights":[-1.0109639E-4,-2.2626365E-2,1.8167925E-1,-1.2708503E-1,3.7885163E-2,-2.5589344E-1,2.5582203E-1,2.712068E-2,-3.491908E-2,-3.031178E-3,3.5776686E-2,-1.4203893E-1,8.608245E-2,8.784508E-2,1.8675344E-2],"categories":[],"categories_nodes":[],"categories_segments":[],"categories_sizes":[],"default_left":[0,0,0,0,0,0,0,0,0,0,0,0,0,0,0],"id":63,"left_children":[1,3,5,7,9,11,13,-1,-1,-1,-1,-1,-1,-1,-1],"loss_changes":[1.0497109E1,1.4422692E1,9.235306E0,1.0468468E1,1.0809962E1,1.3230183E1,7.174652E0,0E0,0E0,0E0,0E0,0E0,0E0,0E0,0E0],"parents":[2147483647,0,0,1,1,2,2,3,3,4,4,5,5,6,6],"right_children":[2,4,6,8,10,12,14,-1,-1,-1,-1,-1,-1,-1,-1],"split_conditions":[7E0,4.3986523E3,2.2757615E3,2.8063237E3,9E-1,8.91E2,3.370823E3,2.712068E-2,-3.491908E-2,-3.031178E-3,3.5776686E-2,-1.4203893E-1,8.608245E-2,8.784508E-2,1.8675344E-2],"split_indices":[24,9,9,9,0,7,8,0,0,0,0,0,0,0,0],"split_type":[0,0,0,0,0,0,0,0,0,0,0,0,0,0,0],"sum_hessian":[2.5616113E3,2.2799656E3,2.8164587E2,8.3589417E2,1.4440714E3,4.0452675E1,2.4119319E2,1.277424E2,7.081518E2,1.04998E3,3.9409137E2,2.4319523E1,1.6133154E1,1.1248829E2,1.2870491E2],"tree_param":{"num_deleted":"0","num_feature":"51","num_nodes":"15","size_leaf_vector":"1"}},{"base_weights":[-1.7112992E-5,-1.6053416E-2,2.3181668E-1,-7.658699E-2,6.0087763E-2,3.9776394E-1,-1.6025687E-2,-3.385196E-2,-1.6555561E-3,1.4136212E-2,-1.1653923E-1,-2.9288057E-2,1.2351944E-1,-4.0411286E-2,1.573611E-1],"categories":[],"categories_nodes":[],"categories_segments":[],"categories_sizes":[],"default_left":[0,0,0,0,0,0,0,0,0,0,0,0,0,0,0],"id":64,"left_children":[1,3,5,7,9,11,13,-1,-1,-1,-1,-1,-1,-1,-1],"loss_changes":[9.514581E0,1.103718E1,6.8161764E0,8.442966E0,7.263806E0,1.1959317E1,1.02197275E1,0E0,0E0,0E0,0E0,0E0,0E0,0E0,0E0],"parents":[2147483647,0,0,1,1,2,2,3,3,4,4,5,5,6,6],"right_children":[2,4,6,8,10,12,14,-1,-1,-1,-1,-1,-1,-1,-1],"split_conditions":[1E0,1E0,6.048892E0,4.4553027E3,1E0,3.504524E3,5.5708223E3,-3.385196E-2,-1.6555561E-3,1.4136212E-2,-1.1653923E-1,-2.9288057E-2,1.2351944E-1,-4.0411286E-2,1.573611E-1],"split_indices":[47,49,21,9,33,8,10,0,0,0,0,0,0,0,0],"split_type":[0,0,0,0,0,0,0,0,0,0,0,0,0,0,0],"sum_hessian":[2.5572253E3,2.3926526E3,1.6457272E2,1.3329377E3,1.0597148E3,9.820974E1,6.636299E1,5.64976E2,7.6796173E2,1.043409E3,1.6305696E1,2.8353533E1,6.985621E1,5.4485924E1,1.18770685E1],"tree_param":{"num_deleted":"0","num_feature":"51","num_nodes":"15","size_leaf_vector":"1"}},{"base_weights":[-2.661025E-7,9.691277E-2,-3.5333704E-2,1.2246699E-1,-4.429702E-1,1.7679572E-1,-6.225428E-2,-1.143439E-1,2.8222797E-2,5.160884E-2,-1.3741168E-1,5.0876796E-2,-6.276729E-2,-1.6444525E-2,5.2771814E-2],"categories":[],"categories_nodes":[],"categories_segments":[],"categories_sizes":[],"default_left":[0,0,0,0,0,0,0,0,0,0,0,0,0,0,0],"id":65,"left_children":[1,3,5,7,9,11,13,-1,-1,-1,-1,-1,-1,-1,-1],"loss_changes":[8.738901E0,9.461285E0,1.0691028E1,8.518162E0,5.487167E0,8.107165E0,1.0833621E1,0E0,0E0,0E0,0E0,0E0,0E0,0E0,0E0],"parents":[2147483647,0,0,1,1,2,2,3,3,4,4,5,5,6,6],"right_children":[2,4,6,8,10,12,14,-1,-1,-1,-1,-1,-1,-1,-1],"split_conditions":[3.4049436E3,8.982339E-1,2.914422E-3,3.09E2,7.6609943E-3,2.533756E1,2E0,-1.143439E-1,2.8222797E-2,5.160884E-2,-1.3741168E-1,5.0876796E-2,-6.276729E-2,-1.6444525E-2,5.2771814E-2],"split_indices":[8,1,5,7,5,6,23,0,0,0,0,0,0,0,0],"split_type":[0,0,0,0,0,0,0,0,0,0,0,0,0,0,0],"sum_hessian":[2.5500474E3,6.8085266E2,1.8691947E3,6.508206E2,3.003206E1,2.098721E2,1.6593226E3,1.6248917E1,6.3457166E2,7.7415047E0,2.2290556E1,1.8163066E2,2.824144E1,1.5642872E3,9.5035446E1],"tree_param":{"num_deleted":"0","num_feature":"51","num_nodes":"15","size_leaf_vector":"1"}},{"base_weights":[-4.5516063E-5,-1.536939E-1,2.1700542E-2,-1.0583185E-1,-4.998421E-1,-1.6800664E-2,1.2463902E-1,-7.2794974E-2,-3.390085E-3,-1.1254107E-1,1.6223487E-1,-5.455295E-3,1.2074665E-1,4.1809574E-2,-1.0763674E-2],"categories":[],"categories_nodes":[],"categories_segments":[],"categories_sizes":[],"default_left":[0,0,0,0,0,0,0,0,0,0,0,0,0,0,0],"id":66,"left_children":[1,3,5,7,9,11,13,-1,-1,-1,-1,-1,-1,-1,-1],"loss_changes":[8.510933E0,5.1793294E0,8.845779E0,6.388829E0,3.5960264E0,1.0579202E1,9.162737E0,0E0,0E0,0E0,0E0,0E0,0E0,0E0,0E0],"parents":[2147483647,0,0,1,1,2,2,3,3,4,4,5,5,6,6],"right_children":[2,4,6,8,10,12,14,-1,-1,-1,-1,-1,-1,-1,-1],"split_conditions":[2E-1,8.760036E-1,2.3E1,1E0,1.488E3,1.3048662E4,1.29E2,-7.2794974E-2,-3.390085E-3,-1.1254107E-1,1.6223487E-1,-5.455295E-3,1.2074665E-1,4.1809574E-2,-1.0763674E-2],"split_indices":[0,1,17,30,11,8,3,0,0,0,0,0,0,0,0],"split_type":[0,0,0,0,0,0,0,0,0,0,0,0,0,0,0],"sum_hessian":[2.5452346E3,3.148154E2,2.2304192E3,2.777206E2,3.70948E1,1.6238872E3,6.06532E2,7.0338295E1,2.0738231E2,3.594216E1,1.1526401E0,1.5978682E3,2.6019056E1,4.1165244E2,1.9487958E2],"tree_param":{"num_deleted":"0","num_feature":"51","num_nodes":"15","size_leaf_vector":"1"}},{"base_weights":[-4.7331097E-5,-4.597053E-2,8.1863604E-2,4.906743E-2,-1.8800455E-1,1.1698076E-1,-1.6135994E-1,-1.07891455E-1,1.2451689E-2,-2.4346692E-2,-8.4679954E-2,3.7696462E-2,-1.4009416E-3,1.5351501E-3,-1.0878618E-1],"categories":[],"categories_nodes":[],"categories_segments":[],"categories_sizes":[],"default_left":[0,0,0,0,0,0,0,0,0,0,0,0,0,0,0],"id":67,"left_children":[1,3,5,7,9,11,13,-1,-1,-1,-1,-1,-1,-1,-1],"loss_changes":[9.577545E0,2.203162E1,7.8313847E0,7.62779E0,1.0154356E1,7.0921288E0,7.4940987E0,0E0,0E0,0E0,0E0,0E0,0E0,0E0,0E0],"parents":[2147483647,0,0,1,1,2,2,3,3,4,4,5,5,6,6],"right_children":[2,4,6,8,10,12,14,-1,-1,-1,-1,-1,-1,-1,-1],"split_conditions":[5E0,3E0,8.3E1,1E0,1E0,1.8326223E-2,-2.053423E-1,-1.07891455E-1,1.2451689E-2,-2.4346692E-2,-8.4679954E-2,3.7696462E-2,-1.4009416E-3,1.5351501E-3,-1.0878618E-1],"split_indices":[24,24,11,13,46,5,6,0,0,0,0,0,0,0,0],"split_type":[0,0,0,0,0,0,0,0,0,0,0,0,0,0,0],"sum_hessian":[2.5441274E3,1.630455E3,9.136725E2,9.7722656E2,6.532284E2,7.9885156E2,1.1482092E2,2.054848E1,9.566781E2,5.1090875E2,1.4231963E2,5.0633276E2,2.9251877E2,8.031456E1,3.450636E1],"tree_param":{"num_deleted":"0","num_feature":"51","num_nodes":"15","size_leaf_vector":"1"}},{"base_weights":[-2.1689654E-4,-1.0871772E-1,3.173818E-2,-1.7612913E-1,2.196677E-1,8.947834E-2,-7.896681E-2,-4.9079888E-2,7.2797844E-3,1.2634905E-2,1.395617E-1,2.6254177E-2,-8.221161E-3,2.8030565E-2,-2.8638447E-2],"categories":[],"categories_nodes":[],"categories_segments":[],"categories_sizes":[],"default_left":[0,0,0,0,0,0,0,0,0,0,0,0,0,0,0],"id":68,"left_children":[1,3,5,7,9,11,13,-1,-1,-1,-1,-1,-1,-1,-1],"loss_changes":[8.814442E0,1.2842487E1,1.2560463E1,7.0818443E0,7.3603396E0,7.0518675E0,9.501334E0,0E0,0E0,0E0,0E0,0E0,0E0,0E0,0E0],"parents":[2147483647,0,0,1,1,2,2,3,3,4,4,5,5,6,6],"right_children":[2,4,6,8,10,12,14,-1,-1,-1,-1,-1,-1,-1,-1],"split_conditions":[3.5E1,1E0,1.39E2,5.518863E3,2.5E1,1E0,4E0,-4.9079888E-2,7.2797844E-3,1.2634905E-2,1.395617E-1,2.6254177E-2,-8.221161E-3,2.8030565E-2,-2.8638447E-2],"split_indices":[3,37,3,10,17,38,12,0,0,0,0,0,0,0,0],"split_type":[0,0,0,0,0,0,0,0,0,0,0,0,0,0,0],"sum_hessian":[2.540276E3,5.7739087E2,1.962885E3,4.7943536E2,9.795551E1,1.2901671E3,6.727179E2,3.6146625E2,1.17969124E2,7.46538E1,2.3301708E1,9.7736346E2,3.1280362E2,1.5221605E2,5.205019E2],"tree_param":{"num_deleted":"0","num_feature":"51","num_nodes":"15","size_leaf_vector":"1"}},{"base_weights":[-1.517261E-4,-8.442965E-3,3.9453092E-1,-1.2763507E-4,-3.704045E-1,1.3962962E-1,7.078945E-1,-7.0684175E-3,1.7802572E-2,3.0239685E-2,-1.1098721E-1,4.661193E-2,-2.0212927E-1,-2.3311669E-2,1.5531215E-1],"categories":[],"categories_nodes":[],"categories_segments":[],"categories_sizes":[],"default_left":[0,0,0,0,0,0,0,0,0,0,0,0,0,0,0],"id":69,"left_children":[1,3,5,7,9,11,13,-1,-1,-1,-1,-1,-1,-1,-1],"loss_changes":[8.284094E0,7.4625063E0,4.061612E0,7.614405E0,5.443184E0,3.4562037E0,1.39927E0,0E0,0E0,0E0,0E0,0E0,0E0,0E0,0E0],"parents":[2147483647,0,0,1,1,2,2,3,3,4,4,5,5,6,6],"right_children":[2,4,6,8,10,12,14,-1,-1,-1,-1,-1,-1,-1,-1],"split_conditions":[1.9E3,1E0,1.355E3,1.885E3,7.5E1,1.403E3,-1.4608066E0,-7.0684175E-3,1.7802572E-2,3.0239685E-2,-1.1098721E-1,4.661193E-2,-2.0212927E-1,-2.3311669E-2,1.5531215E-1],"split_indices":[19,35,7,7,13,11,6,0,0,0,0,0,0,0,0],"split_type":[0,0,0,0,0,0,0,0,0,0,0,0,0,0,0],"sum_hessian":[2.5294797E3,2.4783938E3,5.108589E1,2.4237144E3,5.467955E1,2.8967918E1,2.2117973E1,1.7378069E3,6.859074E2,1.4336412E1,4.034314E1,2.7529268E1,1.43865E0,1.6468855E0,2.0471088E1],"tree_param":{"num_deleted":"0","num_feature":"51","num_nodes":"15","size_leaf_vector":"1"}},{"base_weights":[-1.3359779E-4,4.115418E-2,-8.248222E-2,8.351592E-2,-9.7001225E-2,-1.1602535E-1,1.2985411E-1,-3.3624452E-3,2.781642E-2,1.3761662E-1,-2.4226358E-2,-2.692534E-2,1.0240066E-1,9.389392E-2,-2.6016563E-2],"categories":[],"categories_nodes":[],"categories_segments":[],"categories_sizes":[],"default_left":[0,0,0,0,0,0,0,0,0,0,0,0,0,0,0],"id":70,"left_children":[1,3,5,7,9,11,13,-1,-1,-1,-1,-1,-1,-1,-1],"loss_changes":[8.5916605E0,9.858448E0,6.0254493E0,7.1864614E0,7.5746527E0,8.588447E0,1.02654705E1,0E0,0E0,0E0,0E0,0E0,0E0,0E0,0E0],"parents":[2147483647,0,0,1,1,2,2,3,3,4,4,5,5,6,6],"right_children":[2,4,6,8,10,12,14,-1,-1,-1,-1,-1,-1,-1,-1],"split_conditions":[1E0,1.3E1,5.8747163E3,3.9410928E3,2.760719E3,7E1,5.73589E3,-3.3624452E-3,2.781642E-2,1.3761662E-1,-2.4226358E-2,-2.692534E-2,1.0240066E-1,9.389392E-2,-2.6016563E-2],"split_indices":[15,12,10,9,9,4,9,0,0,0,0,0,0,0,0],"split_type":[0,0,0,0,0,0,0,0,0,0,0,0,0,0,0],"sum_hessian":[2.524967E3,1.6820996E3,8.428673E2,1.287666E3,3.9443362E2,7.282742E2,1.1459314E2,4.5921768E2,8.284483E2,1.0941415E1,3.8349222E2,7.080872E2,2.0186949E1,4.933256E1,6.526058E1],"tree_param":{"num_deleted":"0","num_feature":"51","num_nodes":"15","size_leaf_vector":"1"}},{"base_weights":[-2.7872252E-6,-4.0926505E-2,7.314985E-2,3.2468535E-2,-1.5133043E-1,6.0337953E-2,1.4124117E0,4.1336925E-3,1.3377802E-1,-2.1795972E-1,-2.678498E-2,7.913783E-3,7.990899E-2,3.255511E-1,4.6494808E-2],"categories":[],"categories_nodes":[],"categories_segments":[],"categories_sizes":[],"default_left":[0,0,0,0,0,0,0,0,0,0,0,0,0,0,0],"id":71,"left_children":[1,3,5,7,9,11,13,-1,-1,-1,-1,-1,-1,-1,-1],"loss_changes":[7.5479965E0,1.3106146E1,1.543454E1,7.285791E0,1.0403022E1,6.3033366E0,1.7880135E0,0E0,0E0,0E0,0E0,0E0,0E0,0E0,0E0],"parents":[2147483647,0,0,1,1,2,2,3,3,4,4,5,5,6,6],"right_children":[2,4,6,8,10,12,14,-1,-1,-1,-1,-1,-1,-1,-1],"split_conditions":[5E0,3E0,6.223077E3,9.393273E1,3.7281626E3,4.7112637E3,6.4343975E3,4.1336925E-3,1.3377802E-1,-2.1795972E-1,-2.678498E-2,7.913783E-3,7.990899E-2,3.255511E-1,4.6494808E-2],"split_indices":[24,24,10,6,10,10,9,0,0,0,0,0,0,0,0],"split_type":[0,0,0,0,0,0,0,0,0,0,0,0,0,0,0],"sum_hessian":[2.519312E3,1.6158173E3,9.0349475E2,9.710093E2,6.44808E2,8.959686E2,7.5261307E0,9.54347E2,1.6662342E1,1.0619427E1,6.341886E2,8.453274E2,5.0641235E1,6.0436177E0,1.482513E0],"tree_param":{"num_deleted":"0","num_feature":"51","num_nodes":"15","size_leaf_vector":"1"}},{"base_weights":[1.4281047E-4,5.4283E-2,-6.2704235E-2,2.3714768E-2,2.4811557E-1,1.602182E-1,-9.6265E-2,1.3499859E-2,-2.530909E-2,2.8155938E-2,1.0240012E-1,-1.16502E-2,7.457299E-2,1.487044E-2,-2.8611047E-2],"categories":[],"categories_nodes":[],"categories_segments":[],"categories_sizes":[],"default_left":[0,0,0,0,0,0,0,0,0,0,0,0,0,0,0],"id":72,"left_children":[1,3,5,7,9,11,13,-1,-1,-1,-1,-1,-1,-1,-1],"loss_changes":[8.577254E0,8.018038E0,8.743345E0,7.711666E0,5.150033E0,7.130804E0,8.110276E0,0E0,0E0,0E0,0E0,0E0,0E0,0E0,0E0],"parents":[2147483647,0,0,1,1,2,2,3,3,4,4,5,5,6,6],"right_children":[2,4,6,8,10,12,14,-1,-1,-1,-1,-1,-1,-1,-1],"split_conditions":[1E0,2.35E2,1E0,1E0,1.645E3,1.237E3,8.6E1,1.3499859E-2,-2.530909E-2,2.8155938E-2,1.0240012E-1,-1.16502E-2,7.457299E-2,1.487044E-2,-2.8611047E-2],"split_indices":[22,13,16,38,7,7,13,0,0,0,0,0,0,0,0],"split_type":[0,0,0,0,0,0,0,0,0,0,0,0,0,0,0],"sum_hessian":[2.51883E3,1.3532211E3,1.1656089E3,1.1698527E3,1.8336845E2,1.5202582E2,1.0135831E3,9.063119E2,2.6354068E2,1.3143886E2,5.1929592E1,7.534444E1,7.668137E1,2.1801567E2,7.9556744E2],"tree_param":{"num_deleted":"0","num_feature":"51","num_nodes":"15","size_leaf_vector":"1"}},{"base_weights":[2.1925905E-4,-4.6083503E-3,6.284685E-1,-1.5374515E-2,2.7456966E-1,-3.2845983E-1,8.847162E-1,6.085375E-3,-1.8710999E-2,6.475144E-2,-1.00016415E-1,5.1959198E-2,-2.1159926E-1,-1.4648954E-2,2.3911206E-1],"categories":[],"categories_nodes":[],"categories_segments":[],"categories_sizes":[],"default_left":[0,0,0,0,0,0,0,0,0,0,0,0,0,0,0],"id":73,"left_children":[1,3,5,7,9,11,13,-1,-1,-1,-1,-1,-1,-1,-1],"loss_changes":[7.625347E0,7.503528E0,4.991812E0,8.608697E0,3.6940236E0,2.325709E0,4.6713486E0,0E0,0E0,0E0,0E0,0E0,0E0,0E0,0E0],"parents":[2147483647,0,0,1,1,2,2,3,3,4,4,5,5,6,6],"right_children":[2,4,6,8,10,12,14,-1,-1,-1,-1,-1,-1,-1,-1],"split_conditions":[1E0,2.9160032E1,3.1152256E0,6.204202E0,6.4409346E3,1.1E1,-1.1782116E0,6.085375E-3,-1.8710999E-2,6.475144E-2,-1.00016415E-1,5.1959198E-2,-2.1159926E-1,-1.4648954E-2,2.3911206E-1],"split_indices":[50,21,21,21,10,12,6,0,0,0,0,0,0,0,0],"split_type":[0,0,0,0,0,0,0,0,0,0,0,0,0,0,0],"sum_hessian":[2.51222E3,2.4940476E3,1.8172163E1,2.4023489E3,9.169877E1,3.7788107E0,1.43933525E1,1.5152582E3,8.8709076E2,8.677119E1,4.9275875E0,2.4484289E0,1.330382E0,3.7134843E0,1.0679868E1],"tree_param":{"num_deleted":"0","num_feature":"51","num_nodes":"15","size_leaf_vector":"1"}},{"base_weights":[1.8155694E-4,-1.9053424E-2,1.6311026E-1,7.097231E-3,-2.8317666E-1,8.430273E-1,1.2632199E-1,4.700847E-3,-5.0088227E-2,-7.068079E-2,5.13693E-4,3.1435657E-1,7.607299E-2,1.36507815E-2,9.889794E-2],"categories":[],"categories_nodes":[],"categories_segments":[],"categories_sizes":[],"default_left":[0,0,0,0,0,0,0,0,0,0,0,0,0,0,0],"id":74,"left_children":[1,3,5,7,9,11,13,-1,-1,-1,-1,-1,-1,-1,-1],"loss_changes":[7.8762426E0,1.5527895E1,6.531317E0,8.652462E0,4.0651436E0,3.9354868E0,5.3735733E0,0E0,0E0,0E0,0E0,0E0,0E0,0E0,0E0],"parents":[2147483647,0,0,1,1,2,2,3,3,4,4,5,5,6,6],"right_children":[2,4,6,8,10,12,14,-1,-1,-1,-1,-1,-1,-1,-1],"split_conditions":[4.427514E-1,3.0324249E-2,3.1457961E3,8.982339E-1,1E0,7E-1,1.5E3,4.700847E-3,-5.0088227E-2,-7.068079E-2,5.13693E-4,3.1435657E-1,7.607299E-2,1.36507815E-2,9.889794E-2],"split_indices":[5,5,10,1,27,0,19,0,0,0,0,0,0,0,0],"split_type":[0,0,0,0,0,0,0,0,0,0,0,0,0,0,0],"sum_hessian":[2.511224E3,2.2468494E3,2.6437473E2,2.0453171E3,2.0153227E2,1.2445352E1,2.5192938E2,1.9236742E3,1.2164284E2,1.6158333E2,3.9948948E1,3.9019685E0,8.543383E0,2.1863177E2,3.3297607E1],"tree_param":{"num_deleted":"0","num_feature":"51","num_nodes":"15","size_leaf_vector":"1"}},{"base_weights":[2.7802715E-4,2.313867E-2,-1.3206539E-1,6.506764E-1,1.6817292E-2,-2.2092144E-1,5.5454593E-2,2.3757337E-1,5.4948457E-2,9.829266E-4,6.730158E-2,-1.6361326E-2,-8.238798E-2,-8.432219E-2,2.522463E-2],"categories":[],"categories_nodes":[],"categories_segments":[],"categories_sizes":[],"default_left":[0,0,0,0,0,0,0,0,0,0,0,0,0,0,0],"id":75,"left_children":[1,3,5,7,9,11,13,-1,-1,-1,-1,-1,-1,-1,-1],"loss_changes":[7.5934877E0,8.478891E0,6.1721106E0,3.9785767E0,8.0647335E0,6.637122E0,4.0871954E0,0E0,0E0,0E0,0E0,0E0,0E0,0E0,0E0],"parents":[2147483647,0,0,1,1,2,2,3,3,4,4,5,5,6,6],"right_children":[2,4,6,8,10,12,14,-1,-1,-1,-1,-1,-1,-1,-1],"split_conditions":[1E0,1E0,1.5E3,1E0,1E0,2.1E2,4E-1,2.3757337E-1,5.4948457E-2,9.829266E-4,6.730158E-2,-1.6361326E-2,-8.238798E-2,-8.432219E-2,2.522463E-2],"split_indices":[18,23,19,27,20,19,0,0,0,0,0,0,0,0,0],"split_type":[0,0,0,0,0,0,0,0,0,0,0,0,0,0,0],"sum_hessian":[2.507856E3,2.1391672E3,3.6868875E2,2.0317015E1,2.11885E3,2.5003291E2,1.1865584E2,7.4753513E0,1.2841662E1,2.0437721E3,7.5077965E1,1.4549799E2,1.0453493E2,1.4668238E1,1.03987595E2],"tree_param":{"num_deleted":"0","num_feature":"51","num_nodes":"15","size_leaf_vector":"1"}},{"base_weights":[2.7408326E-4,6.504312E-3,-4.5144475E-1,-9.522954E-3,1.914002E-1,2.2571361E-1,-5.509792E-1,-5.147667E-2,7.9148123E-4,-6.565678E-2,4.997943E-2,-5.1081753E-3,-1.5851673E-1],"categories":[],"categories_nodes":[],"categories_segments":[],"categories_sizes":[],"default_left":[0,0,0,0,0,0,0,0,0,0,0,0,0],"id":76,"left_children":[1,3,5,7,9,-1,11,-1,-1,-1,-1,-1,-1],"loss_changes":[7.049179E0,7.3232617E0,5.980861E0,7.6007376E0,6.07465E0,0E0,4.1346273E0,0E0,0E0,0E0,0E0,0E0,0E0],"parents":[2147483647,0,0,1,1,2,2,3,3,4,4,6,6],"right_children":[2,4,6,8,10,-1,12,-1,-1,-1,-1,-1,-1],"split_conditions":[1E0,6E1,4.5180827E-2,3.5E1,6.901042E-2,2.2571361E-1,8.8E1,-5.147667E-2,7.9148123E-4,-6.565678E-2,4.997943E-2,-5.1081753E-3,-1.5851673E-1],"split_indices":[34,4,1,13,1,0,13,0,0,0,0,0,0],"split_type":[0,0,0,0,0,0,0,0,0,0,0,0,0],"sum_hessian":[2.502718E3,2.4696416E3,3.307637E1,2.2735159E3,1.9612589E2,1.3475082E0,3.172886E1,1.1633819E2,2.1571775E3,1.9376244E1,1.7674963E2,1.0342292E1,2.1386568E1],"tree_param":{"num_deleted":"0","num_feature":"51","num_nodes":"13","size_leaf_vector":"1"}},{"base_weights":[1.9285282E-4,3.558359E-2,-7.058446E-2,1.9973034E-1,1.14351185E-2,-4.8646297E-2,-4.065727E-1,-8.450523E-2,5.1078666E-2,-2.4422556E-2,1.083969E-2,-6.8315335E-2,-5.370675E-3,-1.4208286E-1,-2.7017925E-2],"categories":[],"categories_nodes":[],"categories_segments":[],"categories_sizes":[],"default_left":[0,0,0,0,0,0,0,0,0,0,0,0,0,0,0],"id":77,"left_children":[1,3,5,7,9,11,13,-1,-1,-1,-1,-1,-1,-1,-1],"loss_changes":[6.2626925E0,6.6046305E0,6.123468E0,7.5097466E0,8.310769E0,4.992486E0,4.1065836E0,0E0,0E0,0E0,0E0,0E0,0E0,0E0,0E0],"parents":[2147483647,0,0,1,1,2,2,3,3,4,4,5,5,6,6],"right_children":[2,4,6,8,10,12,14,-1,-1,-1,-1,-1,-1,-1,-1],"split_conditions":[1E0,3.6937625E3,3.7E1,5E0,3.9000806E3,4.5E1,8.8E1,-8.450523E-2,5.1078666E-2,-2.4422556E-2,1.083969E-2,-6.8315335E-2,-5.370675E-3,-1.4208286E-1,-2.7017925E-2],"split_indices":[15,10,2,24,9,13,2,0,0,0,0,0,0,0,0],"split_type":[0,0,0,0,0,0,0,0,0,0,0,0,0,0,0],"sum_hessian":[2.4982126E3,1.6657739E3,8.324387E2,2.1269957E2,1.4530743E3,7.8249115E2,4.9947533E1,1.6923292E1,1.9577628E2,3.5198526E2,1.1010891E3,5.3167294E1,7.293239E2,2.2806215E1,2.7141315E1],"tree_param":{"num_deleted":"0","num_feature":"51","num_nodes":"15","size_leaf_vector":"1"}},{"base_weights":[-8.418115E-6,-1.0877917E-2,2.2322728E-1,-7.7179354E-3,-1.0101676E0,3.64326E-1,-8.228532E-2,-1.8598707E-2,3.9275265E-3,-2.849863E-1,8.7565266E-2,1.4689158E-1,5.0605234E-2,1.0089914E-1,-1.0857115E-1],"categories":[],"categories_nodes":[],"categories_segments":[],"categories_sizes":[],"default_left":[0,0,0,0,0,0,0,0,0,0,0,0,0,0,0],"id":78,"left_children":[1,3,5,7,9,11,13,-1,-1,-1,-1,-1,-1,-1,-1],"loss_changes":[6.0568395E0,7.5084534E0,5.025991E0,5.5392675E0,5.1254926E0,3.0877943E0,1.038981E1,0E0,0E0,0E0,0E0,0E0,0E0,0E0,0E0],"parents":[2147483647,0,0,1,1,2,2,3,3,4,4,5,5,6,6],"right_children":[2,4,6,8,10,12,14,-1,-1,-1,-1,-1,-1,-1,-1],"split_conditions":[2.85E2,2.83E2,9E0,1E0,2.8E1,2.1259778E3,1E0,-1.8598707E-2,3.9275265E-3,-2.849863E-1,8.7565266E-2,1.4689158E-1,5.0605234E-2,1.0089914E-1,-1.0857115E-1],"split_indices":[13,13,12,30,17,8,37,0,0,0,0,0,0,0,0],"split_type":[0,0,0,0,0,0,0,0,0,0,0,0,0,0,0],"sum_hessian":[2.4941619E3,2.3792651E3,1.1489677E2,2.3727698E3,6.495513E0,7.846554E1,3.643123E1,5.757094E2,1.7970603E3,5.0615954E0,1.4339174E0,1.6845678E1,6.161986E1,1.5978612E1,2.0452618E1],"tree_param":{"num_deleted":"0","num_feature":"51","num_nodes":"15","size_leaf_vector":"1"}},{"base_weights":[9.50934E-5,-6.335512E-2,4.3596767E-2,-6.919995E-2,8.722988E-1,-1.09565444E-1,7.052105E-2,-7.69113E-3,-4.4401944E-2,3.5664263E-1,7.135645E-2,-6.268823E-3,-8.783482E-2,4.9258098E-2,6.4583058E-3],"categories":[],"categories_nodes":[],"categories_segments":[],"categories_sizes":[],"default_left":[0,0,0,0,0,0,0,0,0,0,0,0,0,0,0],"id":79,"left_children":[1,3,5,7,9,11,13,-1,-1,-1,-1,-1,-1,-1,-1],"loss_changes":[6.8832407E0,5.6073675E0,6.108628E0,4.7315006E0,2.3552442E0,5.699089E0,8.451081E0,0E0,0E0,0E0,0E0,0E0,0E0,0E0,0E0],"parents":[2147483647,0,0,1,1,2,2,3,3,4,4,5,5,6,6],"right_children":[2,4,6,8,10,12,14,-1,-1,-1,-1,-1,-1,-1,-1],"split_conditions":[1E0,3.79E2,7.42E2,2.52E3,3E-1,1.41E2,4.1953647E3,-7.69113E-3,-4.4401944E-2,3.5664263E-1,7.135645E-2,-6.268823E-3,-8.783482E-2,4.9258098E-2,6.4583058E-3],"split_indices":[14,3,7,7,0,3,10,0,0,0,0,0,0,0,0],"split_type":[0,0,0,0,0,0,0,0,0,0,0,0,0,0,0],"sum_hessian":[2.4917551E3,1.0133123E3,1.4784427E3,1.00794196E3,5.370353E0,2.205794E2,1.2578634E3,8.4015924E2,1.6778271E2,1.0521429E0,4.31821E0,1.7915758E2,4.1421825E1,2.2373688E2,1.0341265E3],"tree_param":{"num_deleted":"0","num_feature":"51","num_nodes":"15","size_leaf_vector":"1"}},{"base_weights":[2.2831843E-4,4.4140115E-2,-5.0495375E-2,5.4417465E-2,-4.6642858E-1,1.3622235E-1,-7.868723E-2,-9.116063E-2,1.274961E-2,-1.19243935E-1,1.721727E-1,4.430629E-2,-5.7064738E-2,1.496644E-2,-2.3234803E-2],"categories":[],"categories_nodes":[],"categories_segments":[],"categories_sizes":[],"default_left":[0,0,0,0,0,0,0,0,0,0,0,0,0,0,0],"id":80,"left_children":[1,3,5,7,9,11,13,-1,-1,-1,-1,-1,-1,-1,-1],"loss_changes":[5.5504036E0,7.033862E0,6.0972466E0,6.2663603E0,5.071425E0,5.531047E0,5.793725E0,0E0,0E0,0E0,0E0,0E0,0E0,0E0,0E0],"parents":[2147483647,0,0,1,1,2,2,3,3,4,4,5,5,6,6],"right_children":[2,4,6,8,10,12,14,-1,-1,-1,-1,-1,-1,-1,-1],"split_conditions":[1E0,1E0,1E0,2E1,1.0905835E4,-2.66494E-1,-1.2647192E0,-9.116063E-2,1.274961E-2,-1.19243935E-1,1.721727E-1,4.430629E-2,-5.7064738E-2,1.496644E-2,-2.3234803E-2],"split_indices":[22,33,16,4,8,6,6,0,0,0,0,0,0,0,0],"split_type":[0,0,0,0,0,0,0,0,0,0,0,0,0,0,0],"sum_hessian":[2.4899102E3,1.334637E3,1.1552732E3,1.3091777E3,2.5459314E1,1.5104613E2,1.00422705E3,2.2652079E1,1.2865256E3,2.369324E1,1.7660755E0,1.2601809E2,2.5028048E1,1.9689359E2,8.0733344E2],"tree_param":{"num_deleted":"0","num_feature":"51","num_nodes":"15","size_leaf_vector":"1"}},{"base_weights":[1.2557808E-4,-1.4480309E-2,1.7150953E-1,1.0656496E-2,-2.1228485E-1,6.288539E-2,4.2544243E-1,1.6646923E-2,-6.439853E-3,-7.649325E-2,-1.9089751E-2,-2.9561752E-2,5.2999087E-2,9.7342566E-2,-2.4481057E-1],"categories":[],"categories_nodes":[],"categories_segments":[],